1024
1024
0
-107
0
179
213
0
-144
-141
-160
-60
-114
65
0
-66
100
0
-159
-129
-100
-57
0
-63
118
-101
190
-92
0
-59
0
-125
82
169
88
141
-95
81
-101
0
92
104
0
0
0
60
0
81
99
435
0
51
-129
77
0
-271
-125
95
0
-206
-169
-52
101
241
161
-84
-164
0
0
-120
-120
68
-147
-73
64
0
0
-82
0
0
0
-183
0
-75
-52
122
0
0
0
0
114
0
105
-90
129
0
-57
-83
61
0
-56
0
0
-159
-96
193
-166
-56
104
-174
0
0
226
0
188
54
-158
0
0
90
55
243
189
0
-145
-140
0
90
84
0
145
168
-161
56
0
68
89
-83
87
0
255
-59
0
0
0
-203
-147
-53
-83
185
0
-91
50
0
0
0
0
-110
189
-61
-134
-122
0
0
-66
0
-70
171
171
0
144
0
0
-168
232
57
-145
-129
0
0
0
72
80
95
-58
-80
-61
-120
-136
55
88
0
-77
-125
0
-78
0
-114
107
-134
62
0
-75
-134
0
0
-93
77
0
74
218
0
0
-279
0
50
0
0
-58
66
0
0
-123
226
-104
-54
-101
-88
0
-61
-88
0
0
0
-55
66
-76
72
140
-91
0
0
0
0
-73
87
-133
0
0
-51
0
-154
57
166
58
0
0
0
-55
0
0
-86
0
0
-151
0
-100
90
0
-201
0
-87
181
0
0
101
-168
-89
-97
-82
-174
-114
-175
0
0
0
0
112
0
-146
0
89
-121
0
-171
-110
-100
0
0
52
0
-79
156
0
0
174
-192
0
-129
0
0
-76
-84
0
152
-71
0
127
-199
88
-87
-104
-107
264
-71
0
0
131
-60
0
0
0
72
-133
-58
-76
0
0
-89
0
106
-149
101
119
0
0
-86
0
0
82
0
106
-87
-163
158
0
-247
-102
0
-79
-92
-56
-171
-71
90
0
81
0
0
0
0
-50
-160
-86
-73
0
116
-73
50
-67
-59
-182
0
-58
0
0
-65
110
0
-73
0
-368
-64
-145
99
-163
0
62
0
109
-203
-236
136
73
313
125
169
0
-69
340
-123
-64
76
0
0
0
260
-65
-130
-177
-70
-101
0
-64
-69
1043
672
-55
-86
-256
746
-92
0
91
115
-101
-105
0
0
-65
-124
0
68
-59
0
191
173
-166
-247
-129
109
0
273
625
0
215
143
-75
0
-151
-95
-142
77
0
76
-297
86
0
-89
-118
0
0
0
85
0
0
-142
108
-140
0
0
-96
0
-52
63
-56
-66
-102
159
188
0
-65
-80
0
0
-57
-119
-110
0
-55
0
-68
118
213
140
0
0
-123
-189
-129
-103
-66
0
-140
187
-97
146
-145
0
-172
-178
-143
127
-161
-56
613
0
217
60
0
-345
113
0
85
383
149
0
0
-125
205
-141
0
0
0
0
0
0
77
0
0
-110
-210
-153
-86
0
83
-79
-67
111
126
0
1255
278
-86
-108
246
-170
0
156
197
0
-195
0
-113
0
94
-83
97
155
-166
271
-194
0
0
71
-154
357
89
0
0
-51
0
0
0
-178
0
-140
-76
0
0
99
123
-168
62
0
241
-65
69
142
-99
0
-98
-246
-144
818
-89
0
0
-155
-133
-114
-108
265
99
-108
-267
-120
-75
0
0
0
-258
-71
209
-253
-65
-274
-183
-263
133
0
71
0
-167
-223
73
54
0
-198
0
-150
0
0
0
71
0
0
0
57
0
342
246
0
0
0
-271
55
60
0
249
-69
-109
222
-78
-165
-177
-89
-92
-53
0
189
-82
-57
173
-99
105
0
-69
-119
-104
-196
90
60
0
0
0
0
-98
184
-184
-121
0
94
0
243
731
-245
72
247
68
-144
0
0
-110
0
0
0
0
249
0
-189
0
107
0
123
304
-134
0
0
-55
121
0
0
-81
0
63
-74
261
0
-110
77
-195
-208
147
155
71
0
0
101
0
0
-103
-120
96
-131
280
0
-107
-183
55
-81
-81
0
111
180
-71
-229
1353
0
143
-84
-240
0
-148
0
119
0
69
-120
0
-136
103
0
0
58
-112
-165
86
0
0
0
0
-133
116
234
0
-84
157
-225
-88
0
-125
249
128
0
0
-184
-90
146
0
0
-71
-57
119
118
421
0
0
-54
0
0
-78
-83
-60
147
-71
-243
-60
-128
0
-164
0
482
0
0
68
-235
-126
149
262
-128
0
-55
0
0
466
115
0
-190
0
-54
57
0
0
-273
0
105
-121
0
725
-88
0
0
406
0
0
0
-140
0
0
163
-108
279
-133
-103
-105
-55
280
0
0
118
-277
51
0
-175
0
-81
162
0
0
0
0
-96
77
180
296
0
195
118
0
97
-75
0
88
57
0
-123
-99
-168
-87
0
436
0
52
0
0
-223
-193
-100
-197
0
-97
199
0
-65
-128
244
0
-151
0
0
349
0
70
-60
0
334
0
-154
0
0
68
-94
-212
-173
52
-111
172
0
166
0
-134
89
-91
-118
-110
0
0
54
0
-54
0
-243
0
-52
129
139
0
73
0
-68
-109
68
70
-88
0
0
90
-92
-67
-87
-112
-123
0
101
107
0
117
-88
-159
-56
0
-55
83
0
-51
-104
128
0
-216
85
187
-167
0
0
0
108
0
0
274
220
182
138
0
-239
-67
-57
-54
-187
-59
0
0
-102
226
-53
-221
-55
69
60
-213
0
-116
0
0
137
148
261
0
-104
154
-71
0
-85
119
0
0
58
649
105
218
0
-106
0
0
0
0
62
-129
0
0
147
0
-105
-214
-98
-224
97
0
0
-127
0
0
-173
-59
110
77
337
-145
-95
0
0
-182
0
-212
-57
-68
0
-191
0
-70
63
-72
89
-115
-59
0
-144
152
-64
61
0
-95
0
-96
122
-162
0
-112
0
0
-64
0
0
-209
0
113
159
68
0
0
-123
63
132
-70
0
-102
-100
-158
0
0
-127
-86
-124
0
-78
0
0
246
-90
-83
281
163
0
-200
-95
-153
-53
-98
0
69
0
0
-65
-157
-105
-207
114
317
0
-83
-144
-82
264
0
0
497
-53
121
-222
0
-128
52
50
0
65
0
72
-167
-115
-170
-63
-195
-81
0
206
223
158
-131
-287
-92
0
-143
0
-189
74
-242
180
0
-198
53
0
0
484
102
200
-126
-344
0
-71
0
-252
56
-115
0
202
0
-182
190
0
146
-89
180
0
-81
-84
0
0
489
464
-120
-53
0
-83
104
0
110
0
257
-187
-136
-336
-61
0
175
258
323
-173
-126
466
586
0
0
-156
221
-223
0
394
593
0
-274
0
-62
-58
0
0
-121
-217
0
-259
-174
-76
-200
-147
53
0
0
0
578
173
138
0
0
-228
0
134
68
0
0
-75
0
-77
121
126
-152
216
-177
0
-130
-155
-147
-82
0
0
0
204
358
116
0
257
106
233
326
-149
298
469
122
349
0
0
0
99
0
-173
0
0
161
0
0
-236
161
-52
-62
0
0
-97
-194
-115
-69
129
-123
0
-122
0
175
-57
-99
51
-70
-154
122
55
-102
-88
0
-101
0
0
0
0
143
131
64
59
0
-116
0
0
172
-71
106
-164
-52
-167
0
0
-117
0
129
-68
167
255
87
-192
503
-183
126
-160
-96
0
-199
0
-191
0
0
0
0
-72
-85
69
-63
0
0
-121
91
-102
57
-148
0
81
0
130
347
155
0
0
113
-77
0
0
0
-189
-94
83
-150
0
0
229
113
0
172
69
70
0
-143
-83
-136
0
0
137
-161
-79
-164
301
273
60
-123
-66
0
250
0
0
0
0
0
0
0
-78
265
86
0
0
-124
0
0
-80
-88
-112
0
0
280
-60
0
-108
-61
0
0
-74
0
114
0
-88
-333
-153
238
142
88
-52
417
295
0
-231
-157
-105
-135
0
0
-62
0
0
-75
68
-54
0
-141
0
0
-111
148
-253
85
-52
-160
0
-176
63
125
-69
75
-99
0
-51
56
-95
0
-106
175
0
-74
-224
-65
0
79
0
0
-172
164
-60
0
-186
-155
202
-284
0
109
378
77
-86
-132
254
-160
52
102
79
-143
216
-64
106
127
-152
-145
-137
0
-109
320
0
0
79
-117
111
0
-175
66
154
-106
-67
-131
-98
82
65
0
0
0
81
0
334
-150
-246
0
133
-299
0
0
-107
-217
0
162
0
0
-142
-167
0
0
172
-97
-112
50
0
-229
70
0
-149
582
0
0
-182
0
214
110
462
-79
244
0
-105
0
-105
-121
-156
242
-160
113
133
75
0
-230
0
61
197
118
-53
0
131
222
-119
-301
-71
-68
-133
-83
-82
0
-59
-114
-220
154
59
0
284
0
142
-88
-50
122
-57
-127
-101
170
-266
-84
-55
177
78
0
0
0
-101
-153
222
0
177
-213
0
-55
0
145
-79
-101
0
-63
71
-191
73
-116
0
-194
0
-151
137
-120
-100
0
-108
64
-76
0
119
206
0
57
0
90
0
236
166
-91
-85
0
0
202
0
-56
-106
-122
-285
0
0
50
-71
97
0
0
-61
-92
-151
-219
107
-251
114
0
-110
0
-112
93
56
-129
-68
-76
55
-130
0
-148
-250
-120
-183
145
0
-182
252
-126
133
0
0
165
-66
0
185
239
181
165
187
64
0
61
-85
-270
-122
163
-74
-53
-71
-103
0
289
0
-131
88
0
-131
-130
0
0
292
0
-89
0
0
120
0
-55
56
0
0
0
86
134
0
-65
0
-55
-73
0
-160
0
-177
60
0
105
-174
0
-157
-102
-118
-209
0
0
104
-139
0
0
-136
-57
0
216
149
-101
0
59
0
0
-151
-281
50
0
138
0
-127
158
-51
129
0
83
252
-125
0
230
0
-114
0
-224
0
0
0
-111
0
-194
-167
0
50
-89
0
0
0
-78
108
0
236
267
415
-108
0
0
114
-175
0
-69
0
0
72
172
-382
0
0
-91
135
105
176
0
0
0
0
0
0
0
-76
-83
0
0
68
156
0
0
97
-72
167
203
-173
-211
0
0
-86
234
0
229
-181
276
234
0
-156
-156
-113
-158
138
0
-83
-127
-152
0
-164
-279
-110
168
-145
0
0
79
-79
-61
79
-185
55
-131
0
97
118
129
202
130
666
-188
0
0
-80
-98
-99
76
0
54
71
349
150
0
-79
129
100
178
-90
0
0
181
0
0
-165
-96
-86
277
95
116
0
104
0
51
-79
0
-88
51
0
115
137
-95
-204
-90
-95
0
67
0
57
-78
86
-131
-85
-180
0
-156
0
-52
0
0
0
0
-145
-65
88
-94
-79
-133
82
-144
-112
-63
61
160
55
56
0
-172
-53
0
0
-53
-98
-175
-150
0
-111
0
0
-75
-170
-65
0
0
0
-117
-110
62
92
-120
-195
-164
-51
100
-57
126
-120
-174
-102
0
0
0
160
-76
115
168
0
-73
52
0
74
0
0
0
0
98
72
85
69
-70
-74
-93
138
0
111
179
0
104
-131
-83
-108
-53
-65
-54
77
0
117
739
-65
108
151
-113
-117
-122
-89
0
0
-101
-183
-120
0
103
0
-119
85
0
67
-102
122
-62
54
90
130
-168
0
0
-127
0
0
0
69
0
-119
70
0
0
-115
-124
0
-66
-179
0
-117
55
171
212
-352
57
-120
62
0
0
50
-63
79
-64
132
-128
-108
-71
-58
143
-141
180
-114
0
0
0
0
0
0
61
0
-53
69
0
65
106
175
198
208
0
0
-116
119
171
142
90
-53
-249
73
-141
53
0
0
0
-205
164
-124
148
-129
0
-64
109
-185
0
0
106
-120
0
-191
-123
-177
0
-51
61
-106
0
0
-141
0
-88
-56
-175
84
-99
-81
-127
-92
0
-58
-137
0
128
0
0
0
0
-239
-51
-167
51
0
0
-125
-117
0
0
116
-145
78
-118
0
0
-211
0
-127
-110
0
-63
-76
0
72
0
-90
0
-83
-146
0
-58
-51
0
0
122
0
126
-175
0
59
-140
0
-155
56
61
-206
-105
0
-76
63
-161
96
0
161
194
0
89
0
-105
-77
98
0
0
-106
0
-136
0
-152
-158
-73
95
-64
-213
57
-56
-81
0
-149
-93
0
0
178
266
-188
-168
-174
-117
-108
-109
-81
93
0
0
-125
-71
0
-189
-99
-162
-141
0
146
77
-91
0
-84
0
0
70
-102
-127
-95
-159
-116
-80
97
-124
-100
0
0
-149
66
-109
0
0
220
222
0
0
217
-81
75
124
0
79
0
-97
0
206
82
51
0
678
973
0
0
-88
-166
0
0
51
-119
60
71
0
0
159
-221
-136
0
-298
-55
0
-223
0
50
144
0
-291
-54
0
-206
-150
0
-200
153
109
368
-87
-143
-52
-203
228
-89
-197
0
-238
-207
0
-126
173
-202
115
102
0
274
-88
0
-110
78
0
89
0
-116
0
174
491
0
187
-105
-161
-56
-215
0
0
0
0
-156
-294
-113
-72
279
218
0
0
97
-66
-75
96
-54
0
610
-75
-79
-110
-248
-55
0
0
149
0
121
401
0
111
0
-59
87
0
-166
106
-173
-85
-199
367
0
-62
-64
56
-212
-103
0
-128
95
0
0
0
-108
84
-61
107
0
0
0
-147
-65
-268
0
119
-81
0
0
53
-84
0
128
0
68
-70
60
0
-70
73
0
0
128
-194
70
0
329
-181
0
0
116
0
-140
194
-60
251
0
0
263
0
0
-207
86
0
-65
-140
0
-76
-81
-150
0
-57
464
252
207
104
54
91
59
73
-191
0
86
0
55
0
0
-62
-150
-146
257
181
-188
-128
-124
0
-161
-220
0
123
-373
0
-100
-60
62
-226
0
-132
-118
-67
72
-54
-163
177
69
-85
162
-102
-90
170
163
200
57
-164
-147
-136
-209
232
0
0
-186
52
72
0
0
-58
0
166
0
220
62
-157
-56
87
0
-107
0
227
147
-71
-95
123
0
120
111
149
279
-116
0
-287
-107
-97
137
-110
131
-122
372
77
-121
172
0
0
-188
-302
-175
-65
136
167
0
325
0
0
-156
0
155
287
0
0
-122
109
218
0
-84
128
0
0
397
127
-54
347
-160
64
-78
133
0
-71
-271
-59
-74
-53
-101
77
-88
-70
-88
0
190
-216
190
0
0
0
387
186
231
0
-51
0
209
0
-127
230
-124
-140
-77
-238
-175
66
119
104
-94
-228
-91
0
-215
-181
62
187
0
0
104
-146
-279
0
85
-61
-68
-123
58
78
171
-89
-64
62
142
-145
-74
103
0
83
-194
290
259
53
0
83
166
0
0
173
254
74
-129
-136
363
68
164
-54
0
-103
60
-96
-54
-284
0
-158
0
0
-141
0
185
300
-136
-163
0
312
131
-170
-112
0
0
75
229
0
0
150
0
287
0
0
233
-72
0
-213
70
-76
212
0
-149
0
0
-152
-156
-123
-140
0
-312
0
761
396
133
0
65
0
-119
657
154
-88
0
0
186
0
-253
-82
215
0
-161
466
0
153
-107
-53
107
265
0
-195
0
72
0
0
0
-152
-127
642
0
211
-138
-95
0
0
-211
-53
0
-112
125
0
53
-79
0
-60
0
-64
0
111
-96
0
255
63
0
56
-170
-165
0
168
-118
0
-120
148
-185
-79
514
114
0
0
85
582
122
158
511
396
145
97
-307
222
-233
0
0
58
0
56
-118
0
-52
281
0
108
0
0
0
0
59
0
-72
0
87
0
-56
0
0
0
-116
-71
0
-144
-111
-52
-122
0
0
-184
0
-52
0
100
0
0
-89
84
96
245
-101
0
218
0
0
194
225
0
0
-260
0
482
184
165
79
111
105
-66
-157
-102
-83
0
55
0
0
0
0
188
0
0
0
118
-194
0
-157
-240
88
0
-215
0
0
0
-218
63
0
-84
0
0
0
0
-119
69
0
0
0
-79
-80
0
-84
-175
-263
71
-182
-69
0
-60
-182
220
278
0
-156
-235
134
-174
141
0
-75
0
0
-58
0
105
0
0
0
0
0
-59
-82
0
0
73
197
0
-183
0
110
0
182
211
148
60
243
107
0
0
0
-223
164
-209
-215
0
75
-115
-78
0
-124
-103
-97
-85
-197
0
0
-308
-111
0
0
-77
0
123
0
0
53
0
-79
-128
-116
-58
-71
262
282
134
-279
-112
-89
-87
210
-115
-52
0
-162
-99
-233
51
-114
105
0
0
-156
0
-291
-97
0
-65
0
113
109
-68
-122
56
0
0
221
-59
-89
-74
-84
0
-111
-97
76
0
-129
62
0
88
63
-105
200
127
0
0
-226
167
-161
-84
-59
0
52
67
-132
-108
0
89
-176
0
84
0
-66
0
0
-121
84
-97
-114
0
0
-132
97
-115
0
-54
-121
-54
-150
0
-59
0
0
55
-103
0
0
0
-318
0
0
-107
-98
91
-52
0
-133
111
-87
-99
-171
70
0
88
55
143
-51
-139
-82
0
0
-181
0
96
0
-190
-217
-60
0
0
0
-92
-90
339
0
0
-129
-129
211
57
70
0
-57
181
-107
-221
-160
114
0
0
-78
141
0
0
0
0
83
229
96
71
-70
285
151
118
-123
0
0
164
-223
192
-58
-84
0
77
101
54
-59
-54
-77
0
138
0
-68
0
308
0
63
290
89
189
137
0
86
72
239
0
0
191
-93
0
-67
-132
-179
119
-114
76
0
0
61
-59
-109
102
-193
-83
258
165
164
0
-167
0
-53
0
-70
0
-55
0
-223
74
0
-56
241
99
-81
-84
71
0
-66
366
132
399
123
144
0
-150
198
0
-153
-129
81
0
82
76
98
-69
0
-116
-98
-93
325
-82
0
0
0
627
549
327
307
57
0
246
393
-206
327
407
301
-116
234
129
71
-57
169
123
112
175
0
138
105
0
150
117
0
-70
-86
77
89
-55
-163
0
68
-201
-54
114
0
-65
-253
-51
406
-121
-137
0
-58
-104
-131
140
0
-85
132
97
0
167
0
229
0
113
-66
-133
-67
-91
-140
76
-105
185
710
62
87
150
0
53
136
296
-192
197
-106
249
-219
86
-178
-230
72
91
-144
-115
0
-103
-160
-61
-144
312
189
-57
0
-140
0
-129
-111
0
109
-95
0
106
-102
-189
0
-53
0
-156
-186
0
-297
0
0
57
169
-93
-54
223
-65
-143
-100
0
101
-149
-226
0
-89
121
-254
-65
113
-123
0
214
-250
246
0
0
-187
-219
158
-172
-68
-144
124
118
94
100
-152
-62
0
124
-120
-182
217
0
-106
-240
0
53
109
209
0
0
-252
-163
-135
0
-142
230
119
0
173
205
-159
-145
-223
0
0
0
-190
0
320
-50
298
-74
-276
0
416
-64
0
-64
172
52
-53
154
0
-125
225
-190
0
-134
-58
0
0
-132
-76
-140
0
0
-130
154
-59
-108
-139
0
159
165
107
0
58
477
0
425
-107
199
0
248
69
-183
-163
-133
-139
79
-56
-51
57
-189
-76
0
0
0
-107
0
275
-182
-57
-64
0
-50
80
125
-146
242
-169
124
91
69
102
184
-76
282
0
-54
0
-135
137
0
196
129
201
-60
-71
54
-266
50
0
-96
-160
0
0
-194
-51
151
0
122
0
125
167
-56
0
-129
-190
0
-289
0
-259
-96
-139
193
0
0
-122
0
-151
-191
-215
104
0
0
0
0
0
0
0
-95
-53
-90
-134
-63
-142
486
-99
0
238
213
-89
0
0
73
160
0
-193
96
59
84
-84
-123
0
-59
57
86
-240
-119
-131
-77
0
0
134
-250
159
133
-76
-53
0
104
-117
-135
-219
-135
0
0
131
0
-121
83
105
0
-73
-227
-135
0
-85
-249
85
0
418
-61
0
137
0
152
-185
-92
0
0
0
-145
-131
-54
-141
-93
-108
-122
-151
0
-163
0
0
0
-142
-224
0
-82
60
319
124
209
-50
0
0
0
-69
111
-125
-125
-124
-124
0
72
51
-184
0
114
0
62
-203
-236
0
-149
0
120
0
0
0
0
0
-214
-251
0
0
-143
257
0
377
-111
861
95
335
94
170
0
0
0
317
77
0
0
-116
0
0
-220
-51
184
0
0
85
242
-56
128
-285
162
0
-211
108
0
73
257
-144
0
-134
-94
184
0
-112
-66
161
0
-74
-97
0
0
0
67
104
-148
-105
-63
0
-101
0
-118
0
-68
0
0
288
-107
0
-181
-112
-151
-150
54
0
564
0
139
101
-151
58
-142
-202
0
-114
0
-122
-151
62
57
-51
0
362
152
0
-112
53
172
-94
-58
0
119
-98
204
-114
-68
0
80
292
-90
-60
0
0
-63
-208
172
-70
-72
65
0
463
-170
0
0
152
-148
-87
0
-71
188
-324
-163
-249
175
0
278
-178
-84
137
180
-144
0
0
-73
-247
-223
256
210
206
-99
-68
0
0
179
179
0
0
-121
0
0
0
170
0
0
92
-84
0
79
-78
174
172
154
342
222
52
0
0
0
0
-58
-117
0
-139
-50
-137
-118
0
0
-131
0
0
0
-82
-104
-75
0
54
0
0
72
0
-104
-70
0
156
-147
-172
0
347
221
0
-60
-61
-196
152
-227
0
-242
124
0
185
0
-59
0
491
140
167
0
0
-53
-96
-51
50
-120
0
-186
-55
113
-176
196
143
68
0
-87
115
65
326
160
-119
72
0
-66
135
-123
-52
0
0
-335
205
94
-136
129
-133
0
0
0
-52
-122
-79
-147
70
116
0
0
185
0
-136
0
-53
51
-216
-80
0
297
89
0
103
-177
0
0
64
139
106
60
-51
-62
0
0
-88
0
0
84
0
-171
123
0
0
68
-62
-59
0
-295
0
-197
0
-68
-129
83
0
-166
-111
163
0
0
122
-184
65
52
185
-89
0
-117
-134
0
213
245
0
236
509
-182
134
77
427
-86
-325
63
-112
73
-195
0
-70
72
-156
-116
164
-175
92
0
98
0
-198
0
-174
-206
0
-139
-117
75
-97
175
280
-123
-72
321
147
-266
-82
67
92
-225
0
-289
0
0
0
-136
325
507
535
70
650
-312
-237
-129
340
278
111
-65
58
-53
140
0
235
-254
-155
0
-121
292
-175
544
66
-151
0
96
124
-177
275
362
-75
171
165
667
360
0
-272
-252
-70
-113
-299
-286
-134
-98
-182
-156
102
98
183
-310
50
-207
0
0
81
178
-138
-176
337
-280
0
241
72
-220
77
0
167
216
-59
252
0
-91
-169
-191
0
56
0
-144
0
-102
128
-109
0
102
0
0
-176
481
-78
-259
-147
-128
-69
-134
-194
0
77
231
0
-125
-147
0
0
0
365
323
-73
125
-187
243
0
-92
0
-133
69
-125
79
66
-77
-214
0
90
0
-105
-70
-156
73
0
-143
-113
64
353
0
-62
0
-156
310
0
0
0
225
-131
-69
139
0
-278
0
0
197
-70
0
-202
-181
-53
-123
-110
-100
53
59
-170
212
-295
89
487
218
-129
-159
-251
153
-123
-130
404
198
-158
-349
125
228
341
59
99
107
120
77
51
-289
-146
110
0
0
-145
145
-247
73
484
135
-67
-95
317
0
87
-121
-155
-71
-158
-146
-130
-95
-106
-90
104
203
0
-67
0
0
0
224
0
114
51
-63
145
79
-311
-93
-90
325
0
0
0
153
159
0
-57
55
0
0
106
0
0
53
-203
0
55
0
113
-65
275
0
168
79
-119
-52
118
254
0
0
-161
-101
109
152
83
0
102
-93
-106
-113
50
-57
207
94
-207
0
385
-61
-63
0
0
0
150
285
0
-153
-68
165
90
0
52
0
50
91
215
164
0
77
0
93
0
-207
0
183
-67
-99
134
-271
0
-87
-186
-82
346
299
-139
0
131
-137
0
0
0
0
0
382
-82
-130
-76
80
-91
80
170
0
0
115
0
-115
-102
83
50
0
0
0
-89
0
0
-57
-77
0
-211
-148
76
-177
-88
0
122
0
204
0
0
-50
66
-80
0
0
-245
-111
106
98
-285
0
59
0
-77
151
0
-90
-129
107
-80
68
174
-61
-102
148
0
-92
101
-218
0
-70
0
-90
-136
-85
0
-56
-153
-125
-213
0
61
0
225
-198
-159
0
-240
-70
0
0
0
-133
0
-55
0
0
191
-96
0
0
0
-138
-183
73
0
-67
147
241
0
52
128
-313
-76
-78
0
0
-98
0
-77
165
0
-95
-55
162
189
0
-179
-99
-105
162
0
0
0
171
0
-50
0
0
0
-54
0
-122
0
291
-141
-190
-56
224
102
229
-170
126
-68
-58
0
-74
-71
0
56
-117
275
0
-123
0
0
228
-101
-73
62
0
0
0
-65
-117
68
0
-218
0
-95
0
231
251
201
-54
-101
62
0
-92
0
-75
0
-77
165
188
100
-86
0
-59
0
56
0
-89
146
0
-78
66
150
-68
0
-71
-136
-189
0
0
87
-174
145
101
0
-108
244
-74
56
-190
250
-131
111
140
-58
-55
86
-92
-141
62
0
219
-71
-195
57
0
127
162
-125
82
97
-157
-166
-200
0
0
-174
-117
177
78
139
0
-71
-92
-97
66
-161
-102
-64
0
0
-148
0
192
-57
-233
-73
-283
0
-175
163
86
0
129
0
129
-206
-73
-157
83
65
-170
-140
0
0
-213
73
0
235
189
66
-68
0
-74
-196
0
0
124
253
65
-222
0
-193
-125
-117
147
-166
0
0
0
-53
0
0
0
72
0
0
128
-142
-99
-59
0
0
-136
-132
0
0
80
191
309
-196
0
-124
-85
-118
0
-116
-94
53
68
124
0
-126
-95
-69
0
122
-182
0
0
120
-162
124
-77
0
51
0
-81
-211
-82
118
-169
-142
-64
57
-69
348
0
0
-69
97
-173
-155
0
297
136
0
-189
-73
69
-110
0
-121
353
197
0
-68
-157
-235
-88
-84
-104
103
-174
-109
0
-50
69
150
124
0
0
251
93
154
69
0
0
-50
0
-76
-160
73
-51
0
0
0
0
0
-61
0
130
-184
119
168
0
-97
0
0
0
110
55
142
-65
0
-62
0
0
0
0
-52
-109
155
-268
70
-133
0
-204
-224
0
77
226
76
-79
0
0
-117
174
0
-117
0
-154
0
189
-128
0
0
91
213
-104
57
0
0
-81
-93
0
0
-138
-247
-170
0
0
124
0
0
177
169
-73
147
0
-174
-127
170
-94
-83
0
-167
93
0
-205
0
0
0
-88
0
-93
366
206
0
100
312
0
0
0
66
112
-202
112
-87
219
411
367
149
541
309
319
167
263
321
243
125
361
136
0
-140
-135
-198
0
-91
0
342
-133
0
0
96
-97
89
-95
0
-197
197
69
349
289
271
153
218
161
207
58
417
-94
-95
-136
-111
61
106
0
88
230
272
0
-113
58
296
0
0
161
-59
-102
-184
179
229
315
0
-127
-152
0
0
125
0
-118
0
-123
0
135
139
-172
142
177
0
183
152
-148
0
103
-59
110
228
-86
0
121
-108
122
-207
0
-66
-109
-107
0
0
0
-74
-175
-104
270
0
113
0
0
296
-52
50
-148
-124
68
192
0
-118
-236
93
-107
0
55
122
53
204
72
0
70
-94
79
-113
-57
0
-86
123
0
0
-53
186
0
-94
0
58
-125
0
-148
0
211
0
99
-164
0
-102
-183
95
0
0
-58
-57
126
-54
0
51
-103
137
0
-128
241
0
-118
-119
-186
-134
0
-124
-206
-147
-102
-126
0
90
0
0
0
-183
-72
-50
0
0
0
-206
-150
0
-157
-154
-116
-205
176
-91
105
60
148
-85
0
-57
0
0
-189
-135
-124
-89
0
-109
123
0
0
0
67
0
-97
-58
-63
0
0
-92
0
-56
67
0
-66
-51
-81
0
-76
111
0
0
0
-62
254
209
0
0
219
82
175
-50
-104
-80
-70
0
0
-55
0
-130
-91
54
0
0
0
175
154
432
149
0
0
-90
-159
242
0
172
107
0
231
-132
0
66
0
0
-177
-94
-124
0
-212
0
0
0
-147
129
-125
114
-306
301
69
72
-69
-161
-114
-91
-81
84
156
182
0
318
281
162
0
-102
404
0
304
143
-145
-110
0
-172
118
289
0
0
-158
-98
0
-223
0
-205
-119
-63
268
0
64
-187
160
117
102
0
99
-124
0
-183
227
106
-55
0
-74
0
0
-140
287
-117
-140
0
319
-141
350
-124
106
-217
72
0
-81
0
-64
0
0
0
0
142
0
-87
59
-166
-192
-126
63
52
-178
103
441
59
-121
-168
0
-165
-148
360
-208
-140
-130
77
0
-104
0
0
-85
0
150
-77
-142
184
-111
-281
95
0
269
-122
-156
100
247
67
53
0
260
-247
874
99
-152
-254
50
-66
0
232
-246
-61
-91
-81
83
262
54
105
0
-158
-110
117
0
61
0
0
0
287
223
0
104
0
-68
-253
0
-77
-109
-159
-140
-133
-92
-159
-66
-92
-154
-191
90
-161
-214
68
76
53
380
-69
0
0
-139
0
165
-458
0
0
-88
53
-110
-83
0
287
-131
0
0
88
50
-105
-90
-265
0
0
0
0
-207
0
145
154
310
0
-65
0
273
-101
105
0
-267
-88
0
0
-375
-78
-92
-115
-75
0
-62
193
-160
-165
147
-52
99
-208
-147
-107
121
-92
-124
-64
-104
0
132
0
-81
240
236
0
0
-175
0
-113
0
-132
195
141
-108
279
123
0
0
-209
153
-53
57
0
-154
89
101
96
75
297
82
0
0
199
88
0
-72
-122
0
-226
-82
0
0
-135
101
120
98
67
-54
-68
-88
-250
71
0
250
-187
-60
0
-196
286
-222
457
0
356
187
0
-125
-130
0
-172
-110
-77
197
288
331
-107
-107
-69
149
-66
-146
0
-64
0
55
-174
0
274
-63
64
0
0
-76
-170
0
-105
-65
216
-166
93
0
0
191
0
66
-110
-216
-98
-192
-102
0
0
-74
130
76
0
-184
-264
209
225
-151
-234
405
-189
319
-50
-299
-165
-157
-90
0
0
-56
0
0
0
95
0
100
0
583
-95
-200
-98
0
-147
-172
0
0
0
-194
356
126
-92
-149
0
0
-166
186
-75
-71
111
0
-89
-110
-152
354
0
-226
-196
0
-91
-53
0
-90
-186
103
187
-137
0
0
0
0
-173
184
52
-363
149
0
-60
-176
57
-348
-50
122
-293
-180
0
-311
151
-362
0
-87
-109
-138
66
-184
-68
-61
217
0
-66
-96
83
-144
-116
0
-173
183
-150
-77
-169
0
-73
-149
56
0
0
102
0
-88
-71
0
-67
-133
0
-155
84
0
-115
-86
110
-164
0
-104
73
81
-72
-77
270
-167
0
-59
-57
172
-55
-235
73
-108
107
-85
87
0
80
0
-95
80
0
-301
-193
0
0
107
0
0
0
66
316
188
-209
-228
97
0
0
-77
-64
-54
117
316
0
140
0
-127
-51
-73
-80
0
0
0
-60
-239
0
-77
-133
81
-192
-172
-172
301
-180
0
0
286
-203
0
0
0
-113
-72
133
109
-71
-65
-60
0
81
0
109
-100
-191
64
0
-54
58
0
-102
-90
102
206
186
-86
0
127
0
0
52
0
-66
164
0
-65
-56
-116
83
305
0
0
418
0
-91
0
-73
0
-112
-182
0
0
-69
-129
0
-81
0
-99
-56
0
61
-144
0
50
-171
-55
0
0
-198
-98
0
0
-224
170
0
-73
0
-66
0
331
-229
-194
320
0
849
125
0
0
53
70
-164
211
-116
54
0
93
0
0
68
200
-91
-86
0
-199
0
-98
0
257
0
0
0
-237
0
160
66
-178
0
-211
154
-148
-50
-146
-90
0
-110
0
0
0
58
-76
0
-159
0
-76
70
-52
-54
64
0
-133
0
252
-91
-55
-191
-107
-132
61
-76
-114
-99
0
91
0
-205
-55
-136
-136
-139
-86
171
0
186
192
188
-132
0
-242
-65
0
0
-130
-114
-91
0
0
-185
0
-202
-151
-168
-62
284
0
0
86
0
0
0
0
-104
105
220
-206
-99
-78
-216
0
70
-56
196
0
-131
151
-154
-126
-184
0
-51
-83
152
-145
-162
0
-94
0
261
337
0
-66
221
-111
0
-53
154
-278
158
0
0
0
204
-67
-170
-227
0
-105
131
-85
-172
-57
0
0
-88
-57
-118
-129
-173
0
-75
-159
-156
-188
0
-108
-137
0
53
-51
-120
0
-193
0
151
-102
-132
-135
-196
-193
-85
-135
172
440
105
0
-56
-156
-138
0
0
-80
0
-155
210
112
0
-120
272
0
-77
0
227
0
0
-110
308
0
0
0
-175
0
0
0
-165
-181
-220
-79
-207
-75
137
198
0
-64
71
-190
293
-77
202
142
78
114
0
0
-171
-92
-288
-147
0
285
209
149
76
0
-87
-126
93
63
134
-90
-72
0
0
0
-154
-51
-83
-59
-78
-103
206
0
204
52
-134
-178
75
-133
-140
0
149
-182
75
0
114
77
-138
-157
-108
-158
0
-151
0
128
-142
-63
0
61
0
0
-231
0
-53
68
342
324
486
442
0
148
0
-341
192
329
548
515
243
53
67
-83
231
50
132
-112
0
-122
-250
0
-154
0
226
243
-88
0
-200
144
-152
229
650
124
0
-288
-80
214
-135
-156
-356
138
0
-77
110
0
-191
0
-60
0
0
0
90
135
-76
0
0
0
142
0
0
0
0
-88
363
0
162
104
-52
158
-115
0
108
297
153
-66
0
0
206
154
-93
303
277
0
128
-193
54
0
-184
0
0
-106
261
-50
97
0
231
-79
-103
125
0
-75
95
0
-63
0
-71
0
-119
-139
-67
110
0
0
105
0
0
0
-74
-260
-94
0
-71
133
0
0
-124
97
185
154
129
-63
64
-67
-68
0
-196
-103
199
52
-117
53
118
128
0
0
55
0
150
0
105
-85
0
-82
173
73
243
0
232
438
356
-121
803
210
0
0
-78
0
0
-51
0
119
-173
-228
-96
0
0
73
0
0
331
760
0
-142
229
626
94
145
-139
-101
0
0
85
89
0
-93
-195
-82
0
-134
131
111
-219
72
88
-86
0
0
0
0
-120
95
0
-87
-112
88
174
-69
0
279
-183
561
-80
-248
-92
-237
-51
0
279
0
90
54
-59
0
-63
-187
0
-101
-123
-156
-262
0
0
0
-511
60
-156
180
-150
0
-61
160
-56
0
-276
-198
237
-232
-133
-202
0
-86
-115
-177
0
-185
0
259
63
0
0
-149
-206
-158
127
-120
101
101
159
-80
59
-187
-88
86
-132
120
-77
0
216
240
-95
161
-100
256
145
103
-65
0
283
131
-98
0
121
0
0
0
99
-241
0
-152
102
115
0
58
-95
-97
-206
0
-176
55
-131
0
340
105
116
127
143
293
-98
105
-122
-102
0
-89
96
0
-77
-81
-140
0
222
0
-113
-223
-163
0
0
-214
-107
0
0
0
0
0
0
-171
-53
0
0
317
0
-63
245
0
-84
0
226
-158
-71
-82
132
0
371
-74
0
0
-88
-145
-319
84
-103
0
-65
0
-150
526
-262
0
-213
0
-62
0
112
0
0
-91
-304
209
209
143
-104
236
-102
0
-93
-66
-266
0
115
89
-106
0
64
53
0
0
-89
66
-172
-103
0
0
-65
299
338
-167
-143
151
175
-238
225
0
209
252
0
-140
-72
72
-254
0
77
-71
-62
-52
0
0
-112
-82
54
0
-77
-94
187
0
-255
67
121
103
219
-197
0
0
95
67
0
-109
-97
151
0
-50
304
0
291
-142
0
177
0
359
-62
-383
-225
279
-148
-90
209
-90
0
179
0
0
166
282
-139
213
171
104
266
-104
0
0
-78
0
-181
-57
-89
57
0
-63
0
0
136
-58
-58
0
0
-175
-103
130
0
-149
277
64
117
-237
63
632
0
0
-157
113
-145
96
0
65
-107
-111
-59
-262
58
92
-89
183
-239
-89
-99
100
-61
84
0
260
330
120
-165
-208
0
-198
64
0
-163
0
0
57
-249
-52
-91
0
0
0
0
-242
197
-58
0
149
90
-121
-158
0
74
-54
0
200
-185
93
0
63
130
289
0
211
0
0
163
-176
-56
0
-63
86
-159
281
0
-157
-169
219
0
-51
0
127
-273
-101
0
-158
-223
145
159
-60
293
285
0
0
-122
0
-51
69
288
0
-125
126
-81
-130
-140
0
189
0
309
200
69
52
-188
0
147
152
-50
-160
-74
0
0
0
107
231
-229
-63
178
76
-161
-66
-102
346
-111
-111
0
-129
239
0
52
0
-145
0
-94
-132
-88
-52
0
66
-106
0
107
-174
-50
204
-237
0
0
-129
-91
-198
-92
-126
-84
0
113
0
-54
-116
-107
-385
-159
-222
0
0
253
-203
55
114
-137
0
257
-70
-108
155
142
-57
0
0
-95
-136
-99
0
114
0
-72
0
0
-78
-80
-209
-110
97
82
-78
-153
-146
-116
-124
-84
0
-115
0
-132
-69
-93
-181
0
-151
0
-62
0
-130
-152
218
-113
0
70
0
0
0
-55
0
-165
0
-110
0
-54
-75
0
0
0
-94
-103
-99
-146
146
-133
52
-89
0
145
0
-70
-147
-118
-235
0
-87
0
0
0
0
-154
0
106
0
89
0
0
0
0
0
129
0
0
-198
82
-246
0
-228
0
90
0
0
-90
0
0
-73
0
0
210
-50
-151
-105
-276
77
138
0
-81
-84
0
290
58
-80
55
0
177
-50
-56
-51
-105
0
52
0
-136
-219
183
-58
-125
85
0
-110
-183
-105
-236
-89
0
-174
212
-70
-100
0
-55
0
69
372
0
-229
0
0
-77
58
212
-86
0
0
51
-65
-114
-244
0
0
0
-203
0
-117
0
-78
0
76
97
123
0
-274
0
0
0
223
-60
0
188
0
-97
0
63
-157
-114
0
275
0
-59
-140
-105
0
0
0
-50
-91
-197
75
-68
-73
91
55
0
88
-236
0
0
0
0
-123
-71
108
73
-173
0
-156
91
0
0
0
150
125
148
208
288
76
307
0
89
309
139
385
0
-96
-88
-211
0
51
0
0
-68
0
-179
-72
0
0
-218
-180
111
-118
0
0
0
-214
0
-242
0
64
-81
-117
-64
-158
0
-106
0
0
-178
-114
-86
-79
-83
0
0
0
-128
160
137
0
68
-69
0
66
-103
0
234
0
119
130
0
-86
95
0
-180
107
-76
-75
0
-66
-179
-139
-89
0
82
0
0
0
-124
-97
-71
-97
-86
0
-167
0
0
-264
-123
0
-209
0
0
-92
0
-58
50
0
-153
0
-119
0
119
-177
-110
0
0
-68
-91
0
-229
0
0
0
-115
110
68
-66
0
0
156
76
-95
-140
-87
0
78
-66
0
0
-111
-63
175
-187
0
-91
0
0
-96
115
-128
-152
-84
84
0
0
-108
-140
-90
-85
179
0
87
-77
140
151
-150
-270
-101
104
74
162
-83
-124
0
-123
-244
-87
-62
0
0
77
-71
-180
0
0
-107
-171
0
-55
-91
-55
0
81
-132
-203
-138
274
73
137
-88
0
68
-66
-94
0
0
0
154
256
-236
0
0
-112
159
53
198
0
-271
-131
-69
0
168
259
-228
0
-55
235
96
0
0
0
63
51
-62
-107
-58
-215
75
0
-147
-79
-168
50
0
113
-63
56
259
0
0
0
70
-161
-132
-89
61
442
163
70
0
100
-162
81
0
218
154
-88
0
-155
0
-60
-51
71
108
0
-187
97
196
0
58
80
97
-103
110
202
0
0
-130
-50
-69
99
86
0
-98
0
-66
-157
-89
-106
75
-137
-128
0
-120
216
-50
96
134
-146
85
356
-153
140
0
84
80
182
105
361
144
0
0
98
0
0
0
-226
0
94
-84
0
251
-141
0
441
295
70
0
0
-122
0
95
0
-331
140
98
0
-120
-93
-71
0
0
0
0
-282
0
-375
80
142
-107
119
68
0
108
151
282
93
0
-189
0
135
0
-186
-371
213
-119
0
134
0
169
302
0
0
193
215
0
-154
83
149
-97
-70
152
0
-162
330
115
78
193
0
0
-108
105
-101
-108
0
-95
-84
248
0
122
0
386
0
174
-54
199
0
-141
79
-87
-113
95
65
-100
198
-57
-64
-51
-350
-59
-99
0
0
101
0
149
101
-163
-54
190
-228
0
198
-270
0
111
0
65
67
0
54
0
-57
0
-59
-99
79
0
-66
82
0
52
231
141
-149
76
301
0
370
-82
74
-187
50
0
0
0
229
-94
205
0
-53
0
-152
-249
0
0
-50
-318
-149
0
-206
162
0
56
269
0
234
247
-230
203
-61
82
618
0
60
-236
50
0
-139
0
96
0
-136
0
-50
-116
105
0
62
62
-78
-141
0
0
0
-173
104
-71
0
-103
69
0
-74
57
-112
130
0
0
0
-106
215
133
63
405
-128
235
160
0
0
0
-60
204
-76
173
0
-105
89
203
0
294
-207
-125
0
-175
214
0
0
-70
0
0
-81
-59
-84
120
141
84
73
350
-125
-57
228
212
85
267
125
0
67
276
381
248
550
-63
99
-115
0
-108
-79
-86
-215
-91
-143
-209
88
103
-129
302
52
0
-114
575
-99
-67
-131
-215
-52
121
0
0
164
210
0
0
0
248
0
-212
0
0
-266
-168
0
-294
142
0
0
0
109
0
73
-59
83
100
-50
119
-143
-68
-174
0
53
0
79
0
0
-138
105
66
106
56
0
-51
-66
0
0
50
147
-100
0
119
0
-69
122
-200
0
0
-61
-299
-55
197
0
167
0
0
395
0
59
71
-58
0
62
0
-125
0
-73
-160
-123
0
230
1099
-195
0
-90
-103
0
0
-84
-71
73
0
157
0
-223
0
-52
78
154
-92
-148
0
0
0
-134
-85
-88
277
207
102
-111
0
-156
0
-75
-140
-60
0
0
79
52
85
-55
-146
0
-168
-277
86
-131
-67
58
-223
0
-60
141
0
0
-65
0
0
0
-51
-103
193
69
-93
-100
0
330
52
-199
-95
-52
321
360
0
52
571
-122
-110
129
0
-53
273
-257
-138
0
0
-66
76
138
217
0
0
257
-191
0
0
101
194
205
66
-108
52
0
0
0
-83
-87
0
206
102
0
0
-117
-93
-82
-146
0
0
0
0
0
0
195
55
0
0
0
89
268
0
266
229
0
0
70
230
226
301
-173
172
0
-154
221
194
0
177
-88
-196
-74
-73
-63
-100
-55
-64
-249
106
127
128
0
-203
0
-95
0
-60
0
102
-60
0
0
-55
0
0
0
-144
0
0
-141
-117
-92
0
0
0
0
-186
-98
110
0
0
-51
0
-51
-146
73
0
-69
0
0
-146
-115
0
-111
-93
-166
58
-74
118
0
69
180
-98
0
-85
-56
-92
-209
104
-53
-113
0
-122
-71
-63
-197
0
-78
-111
-58
-80
-71
-102
-140
-77
-218
-81
-159
-112
-127
-94
-199
80
0
84
101
137
186
151
58
380
235
0
0
0
0
0
-57
-175
-111
0
0
0
0
-194
-171
-76
-190
331
-155
68
-115
-111
53
0
-83
0
-55
0
0
0
0
-163
0
0
0
0
59
218
0
-102
0
66
61
-81
-182
0
-91
83
-162
115
-77
-191
-149
158
317
-102
0
-55
-261
-143
0
109
155
-196
-67
152
-192
-101
-89
-147
-112
104
-111
0
0
-92
0
-277
121
-58
-74
62
0
97
-51
0
98
-153
-50
100
-124
88
-75
0
90
0
-139
80
81
94
-96
52
0
-205
81
180
83
-89
0
-144
-83
152
167
-246
104
0
218
0
57
141
0
-107
72
-89
160
-248
-104
81
0
0
0
363
240
-70
73
0
171
202
0
109
215
132
280
0
0
0
-52
0
0
0
-124
-134
124
-51
0
-116
59
0
-175
60
163
-62
-82
-93
0
53
-156
0
-94
0
0
-81
0
102
-77
-195
0
-84
-177
0
-156
-225
-91
163
160
-101
0
-343
132
-58
343
-248
0
-105
-206
-129
0
50
0
0
0
-114
107
0
0
-78
73
-66
-81
0
-111
0
-98
241
0
-87
-77
105
161
0
0
-117
0
92
104
0
0
0
-116
0
-50
61
-192
64
104
0
-249
236
52
0
217
109
-119
0
131
-75
0
0
249
0
61
-81
-91
120
-146
-152
-169
190
-104
58
-216
-165
286
0
132
-68
0
-176
0
-205
0
0
-143
-69
-82
-168
-91
-95
-102
87
-55
0
-125
152
173
-125
0
174
0
65
-187
56
153
-132
0
102
0
0
100
0
0
93
-68
76
115
-183
0
74
0
105
0
-108
151
0
378
127
0
-94
269
98
-118
93
0
0
-111
119
181
0
0
0
58
95
0
-108
-75
0
0
153
-157
0
-294
-158
131
-120
140
120
0
94
126
0
171
0
-91
0
0
-110
0
-215
-137
-104
585
123
-379
57
106
-223
0
-207
-141
-69
0
-89
526
555
277
0
157
0
0
0
168
101
59
-94
-174
630
66
107
338
119
0
0
0
0
0
-78
-268
-210
-216
0
-108
0
211
-121
-54
-161
-91
0
0
-211
0
0
-131
132
-228
0
248
0
-190
369
0
-151
0
0
194
-94
-204
0
-127
-147
-101
-112
-83
248
-218
0
53
0
52
-161
0
-85
0
89
139
228
-77
0
0
75
0
-122
-81
80
375
188
187
221
97
389
171
-77
165
0
267
-140
404
200
80
85
-142
-167
0
-88
-146
-52
247
-60
-300
-67
71
-195
-199
0
125
-111
238
283
135
66
118
-88
83
0
0
-214
0
73
344
62
-117
0
88
-111
0
0
0
-104
150
0
0
143
-57
-125
-202
50
259
-88
90
498
69
-50
131
0
-61
-87
-169
575
-98
-94
175
109
-102
0
0
-60
0
283
0
138
0
-126
114
291
82
161
-95
0
-78
-145
-83
-77
-117
-96
0
-125
124
0
0
243
0
-118
-232
-170
-95
184
155
-155
-98
66
0
70
221
0
-53
60
-272
-286
-152
-249
191
93
110
115
154
933
-60
543
0
0
0
107
-112
-216
-124
0
164
-185
0
195
0
-126
0
-145
0
0
-79
155
-158
0
179
-138
-58
74
-120
-107
418
-136
-53
-75
117
0
-231
-163
214
57
0
0
98
0
0
97
0
0
-251
0
-104
-179
0
-152
0
224
0
86
-63
-72
174
0
220
217
90
0
57
142
0
-141
158
-52
-266
162
161
-149
58
93
0
0
0
-129
86
-73
-136
-76
-165
-174
-223
135
-74
-96
-94
128
0
333
0
-111
0
0
0
252
118
-84
-66
65
0
235
74
357
93
0
0
0
0
-56
-152
-86
169
-366
-117
0
0
0
123
0
0
0
-158
-66
-82
310
-204
0
61
-67
128
0
160
-219
-170
0
165
0
-109
-373
-91
-131
213
89
77
-267
-94
0
0
193
-53
73
141
107
-71
-98
-211
-110
0
72
0
0
-125
70
0
-110
0
0
-105
61
133
-195
480
-130
-135
-184
83
0
0
-162
0
-151
-231
0
105
0
203
-76
0
0
-190
0
0
-269
0
-129
-150
0
112
124
0
-94
0
-210
0
-140
-169
119
98
-86
77
0
-126
0
0
313
80
-78
-125
0
0
0
-64
-187
-99
66
98
0
274
109
126
50
91
412
89
-56
-108
67
0
-71
-182
96
-127
-60
-83
55
-83
-116
0
-120
0
-201
-69
-143
-82
75
0
-101
0
0
0
-159
-81
-67
0
0
0
-98
51
-115
-139
0
-85
63
-58
-73
-62
-104
-96
0
-180
129
157
0
-113
0
0
-68
0
-100
98
-182
83
-210
-98
-212
0
0
-108
-153
-133
0
0
81
0
-59
164
-137
262
-80
286
-54
0
-74
413
434
254
-161
-148
500
-67
123
-104
-104
-72
106
172
172
184
87
111
161
-115
62
-66
-191
-238
0
0
0
0
-54
0
0
0
-51
-52
0
0
-77
-63
-87
0
-84
-90
-108
0
-223
0
-86
-67
57
0
128
0
0
-146
0
-143
247
0
-188
-77
-170
0
-242
-134
0
-186
-73
-127
-50
-57
-56
0
-145
0
-211
0
0
-103
-51
0
-55
-57
-89
0
0
0
-59
0
0
0
-82
0
0
0
-177
169
-246
0
-145
-97
0
-250
-135
0
-189
-137
0
0
-92
0
-62
0
-77
130
0
51
0
70
-76
65
0
-92
85
149
68
285
-102
-66
-55
-122
123
228
0
0
-54
0
0
343
0
62
0
-96
0
174
0
66
63
105
110
-103
-56
-106
0
-109
83
0
0
58
0
95
0
112
101
401
-116
0
-217
-191
0
-131
0
-89
-141
0
172
123
0
0
0
56
0
103
119
-161
178
0
-57
-53
-144
162
-133
-62
0
-63
-69
0
79
0
-175
-97
-102
0
-136
213
0
0
-139
0
73
0
-85
-214
0
0
-179
-80
-85
139
-242
0
-88
0
-60
-193
-138
-50
0
0
-150
80
62
-84
-84
0
120
-87
0
-76
0
212
-136
0
181
0
113
99
-128
-263
0
-130
-242
0
-83
90
0
-131
-151
-140
-149
-166
0
57
181
0
-58
152
0
0
81
163
-213
67
-92
-119
0
0
0
0
0
62
-64
0
-107
-111
-171
-74
59
-175
0
-102
-121
-56
-61
114
145
91
-69
-125
-155
0
-60
-116
-98
0
0
0
0
0
-91
-102
0
58
-199
-95
0
-176
-88
-175
77
-134
123
0
-165
-71
117
63
69
0
-76
-99
-105
-112
-172
0
0
-101
-56
0
0
-106
164
-161
-159
-88
238
0
55
0
-168
239
52
0
140
-165
-200
-153
54
-157
0
125
136
-68
-86
98
0
-170
0
312
-394
100
-103
0
-287
-106
0
-289
0
-130
-58
-143
-75
-67
106
241
-165
-114
0
0
0
98
0
-74
291
0
0
0
593
123
73
86
202
140
235
-132
-147
301
227
-161
0
80
0
0
0
0
232
393
0
123
108
334
0
91
116
185
146
87
237
-204
-51
885
0
322
397
161
159
0
-128
174
-123
106
0
107
88
235
212
-171
0
247
-118
-131
0
0
0
96
0
0
184
0
0
0
354
0
54
-169
168
170
56
-287
150
751
128
0
231
0
0
-103
0
0
363
125
169
-135
0
-171
180
-50
-83
0
-126
-78
134
-228
206
134
-281
0
-257
-52
93
256
60
-209
0
0
-107
0
0
-135
0
117
98
0
-202
70
-95
0
0
-119
0
76
-53
0
-89
-51
268
345
157
200
-103
57
-139
245
71
80
0
63
0
-62
0
182
-90
103
283
-152
0
194
0
0
-73
0
0
0
-106
61
297
0
-80
224
-189
220
-167
126
-130
495
108
-75
-119
-358
-128
-140
381
0
-154
58
336
525
335
98
0
0
0
0
65
107
-159
-72
0
74
71
0
76
0
96
-120
78
-185
54
0
-82
-126
125
-68
-96
170
68
0
-151
-85
0
-103
-51
-84
0
0
-199
-208
-180
0
-50
-113
1060
74
0
0
295
-105
-91
-81
0
152
470
0
-176
-152
0
0
186
-51
0
-252
-153
143
0
65
-78
-158
-115
-81
445
-100
0
240
0
256
200
0
-66
117
0
136
0
65
344
150
-118
-64
234
-101
-110
-104
229
0
174
-86
-222
0
195
0
73
144
-103
128
-72
154
0
0
-99
99
0
0
124
-71
-116
-118
0
183
171
131
114
-87
98
203
0
-63
-198
0
-217
0
-92
0
0
-141
87
85
99
162
0
0
-112
225
-50
-137
50
238
243
-94
299
-75
71
215
-53
0
0
226
0
0
0
-82
0
-212
-53
0
-239
-51
95
-126
-54
-133
0
61
165
0
-138
0
0
0
174
0
-107
-55
0
-103
0
0
-264
-444
201
251
0
-55
138
-167
-89
0
0
0
91
0
145
-85
98
0
-111
-263
555
-66
0
-105
98
166
-62
-52
237
-73
-69
-143
146
-143
50
113
263
-115
0
0
-111
0
-133
67
114
739
0
-56
0
135
78
0
-111
177
-151
111
89
-87
-107
-364
-102
143
0
0
0
-124
-224
-68
-148
0
0
0
0
90
139
-77
-227
153
0
0
85
-254
0
0
0
-55
-147
68
104
-76
0
-149
-81
-89
-141
-62
87
0
78
112
271
0
51
97
0
-212
256
-146
0
0
-69
-64
-54
-255
0
129
112
0
0
0
-110
56
-62
0
0
0
-50
0
0
137
-81
-51
64
0
-178
0
128
-122
0
-54
-112
0
201
-119
-123
-106
-58
76
-82
0
0
0
95
0
0
-88
214
72
-101
290
-167
0
0
0
-230
-147
82
-151
0
0
-94
92
-244
-249
-122
-158
0
-230
0
-119
-76
262
-161
-146
50
-97
143
73
0
149
104
58
-104
0
0
-167
-105
75
-118
0
50
-114
-62
0
0
0
0
-87
-51
0
-188
0
55
0
0
-77
0
0
-212
-150
-66
0
0
-78
-140
0
-100
-209
-140
-73
-148
-82
131
-157
-140
181
161
100
-214
-95
220
0
-161
-174
50
0
-50
211
0
0
0
0
66
-86
-113
0
102
113
71
-185
0
201
-66
0
0
0
-91
0
133
173
0
0
319
-146
117
0
0
-107
-63
165
222
-153
0
-55
0
-199
56
-50
0
-190
82
58
0
0
76
-68
-273
0
-73
0
-69
0
74
0
-78
-62
-234
265
0
0
61
0
0
0
0
-98
-63
164
163
-52
-140
-87
-122
-103
0
-80
-220
0
235
59
0
146
92
-80
0
0
0
130
-237
90
-60
-98
-136
0
88
0
-104
-178
87
0
-369
-271
0
0
0
-51
107
-91
0
0
125
-81
-58
-76
-122
0
0
-52
0
-231
166
118
-137
189
0
0
-168
0
62
0
0
168
-98
89
0
-93
0
-115
0
-325
-151
-134
0
74
57
-248
70
0
137
0
-161
0
87
195
-111
-114
184
210
186
-170
157
-134
-137
-179
-90
0
60
0
53
-63
-186
69
0
0
0
63
0
65
0
0
144
115
0
-59
0
-203
234
-144
0
-118
0
85
0
-158
0
0
0
-114
0
0
-203
92
-132
0
139
180
68
106
-120
0
130
142
96
-77
70
-113
-141
0
0
-64
84
0
0
-86
-152
76
-95
53
203
72
-53
80
0
-107
134
231
60
229
0
-74
-79
93
0
75
55
-122
-128
-106
-57
0
0
0
-87
-63
-144
-139
0
0
0
-148
0
191
104
0
0
0
-130
-62
0
0
-174
0
-126
-137
115
-105
0
0
0
0
112
-96
0
0
131
0
-187
52
55
102
-69
0
-138
-151
-59
-57
0
235
0
0
60
-60
91
0
112
-144
88
0
-93
0
0
0
-98
-71
82
-70
0
102
-95
136
-63
-73
87
-50
-225
133
0
0
-172
-142
0
-89
-103
0
-106
0
-112
170
0
339
0
0
-191
-245
-292
128
350
-84
0
0
143
104
-76
94
-133
89
-60
-75
0
0
125
-93
-287
-76
-228
419
-66
107
0
-66
-144
-157
243
285
118
0
0
0
-115
63
51
249
0
0
58
-63
0
132
-76
-111
71
-119
-73
-122
-211
-128
0
0
-121
-309
-147
-147
156
0
77
0
-62
319
0
-116
-92
-122
94
0
-110
-55
-151
132
-116
0
0
0
-254
90
0
-80
-302
-102
217
0
0
-199
-114
-125
130
223
-106
0
-99
0
-85
0
-110
0
-133
0
246
-178
222
89
0
-58
0
370
131
0
433
0
233
211
96
-60
-162
-228
57
0
-255
0
0
-249
107
253
0
0
0
0
176
-166
-53
0
471
0
162
231
-59
0
105
-57
-151
0
92
218
-101
0
290
0
149
546
109
-59
-121
-98
-116
-134
0
0
0
-203
-89
0
52
-271
54
0
-168
-69
-198
216
0
0
-194
0
-50
-262
-211
157
-61
309
-58
193
162
79
0
157
0
0
-112
92
-158
0
-90
-198
0
71
922
108
298
0
-67
-136
0
344
-70
-161
109
-64
-90
-139
-282
136
91
0
-116
61
64
-132
-105
0
0
0
-62
-314
114
101
0
75
0
0
0
-295
75
-121
-139
-195
-208
-172
-224
0
-111
306
0
76
64
0
191
0
-288
-126
-203
-163
152
-186
114
89
-123
247
183
163
143
-68
-60
0
-62
158
0
407
97
0
584
160
-256
-148
0
120
0
0
-175
108
-51
128
0
0
0
-109
-155
51
203
-209
0
234
564
-308
172
-97
-189
-118
-133
0
280
-99
144
-96
144
-257
-133
0
-82
-111
0
-66
84
284
-239
0
102
0
302
-130
104
171
182
-314
522
-103
87
135
51
206
0
-98
102
-283
0
-51
-253
110
110
-101
194
185
-410
0
-149
59
0
74
0
0
372
85
-64
-99
186
142
85
1002
58
115
0
163
0
-223
111
186
0
-69
58
-103
-185
-288
177
135
0
133
-166
105
129
-122
0
0
142
-60
0
0
0
0
-87
205
0
-71
0
528
-194
84
0
223
0
-87
-85
0
676
99
0
149
-129
0
0
506
-67
-76
-208
0
-199
116
0
0
-161
-72
202
-106
0
141
564
0
70
155
0
0
348
-142
0
-141
0
167
-154
-147
-114
-257
316
130
-153
0
0
0
93
-80
0
0
-196
-190
75
209
62
-315
0
192
-113
117
-179
-180
-154
66
0
0
507
-56
-150
-137
-63
109
0
241
55
-111
0
213
0
0
0
-277
0
0
-141
519
0
0
255
190
101
52
-224
53
-52
421
142
58
56
92
158
-123
57
-161
0
-177
59
-89
266
0
-84
-90
66
0
-118
0
0
138
129
0
50
152
0
0
0
166
-220
107
0
-145
0
-178
0
0
263
0
0
-62
0
-56
-262
164
-205
91
-344
316
-112
92
-178
137
-133
-71
0
0
0
0
-102
56
0
-83
0
171
51
-61
469
-110
224
176
0
92
-170
-60
-111
0
0
0
-149
-56
0
-51
-136
143
-133
-195
-151
0
231
-71
0
-131
-80
-94
-168
0
-105
-85
-163
0
0
-114
-140
-87
0
-92
-161
-174
0
0
105
0
-100
-210
-112
-174
-101
-112
0
-66
0
-59
199
-70
-121
-192
-127
198
-89
-96
-154
-98
0
0
-107
-134
0
-69
0
74
-90
0
-107
-160
0
-58
-121
75
0
-118
0
-119
-100
-59
-140
-158
-101
0
84
-75
-207
-133
-121
-156
0
-123
-88
0
79
-63
-157
0
-157
-145
-75
-63
-105
0
144
0
-83
0
224
-58
0
-121
220
0
62
0
-90
0
0
-125
-127
-86
0
-130
-77
-64
-190
-126
-62
0
0
-61
93
0
-162
-98
-86
-61
0
0
-114
76
0
-91
0
-173
0
0
-106
0
-75
-123
-147
-107
-217
0
0
-262
315
351
214
226
335
77
274
172
-63
233
-248
94
0
162
0
0
-86
0
0
-126
0
92
0
222
-52
0
160
0
217
0
99
316
-100
92
185
140
355
-51
79
-200
-136
481
324
0
199
0
-210
-72
-160
102
377
-198
272
209
0
-174
0
-64
-348
-190
-85
122
61
-79
0
0
0
-78
101
-104
-183
0
267
160
108
-100
0
-85
57
423
319
247
0
0
0
0
0
-112
-107
0
-87
-131
-223
105
-86
0
0
-75
-199
-207
130
320
113
0
-62
74
73
0
333
271
270
0
-53
0
139
107
-138
0
82
140
124
-74
-139
0
0
0
0
157
183
142
0
-102
0
0
0
0
172
-145
-143
0
0
-106
-88
-129
286
54
-115
64
-99
-68
0
135
-62
0
-86
-164
0
-159
139
-122
-175
-184
0
163
0
-80
-150
0
-51
-136
-59
76
-92
84
0
189
-50
-150
-96
-270
-55
0
403
240
0
200
506
356
73
0
290
362
686
0
-183
-282
-136
-91
-94
-94
-133
0
-121
-77
-87
-155
-59
-186
0
120
293
0
129
-67
-143
0
65
196
0
0
0
0
-125
325
516
178
141
183
261
175
0
-88
0
-93
142
72
-72
0
0
-81
0
190
169
0
0
-71
137
-213
-213
94
-54
0
-64
79
-107
52
257
-160
156
0
0
135
-66
0
-193
0
0
-96
146
111
-160
-228
0
0
235
-76
76
96
0
0
0
144
0
309
-177
79
-107
-64
-106
139
74
0
-197
0
0
-130
0
-82
135
-94
-81
-55
-122
121
380
-129
-159
-125
57
-54
181
-142
239
151
-188
182
0
0
-300
-111
105
395
0
0
-62
0
212
226
0
-83
-133
-87
160
158
0
-57
426
0
189
62
58
-69
-175
0
0
0
135
-122
222
119
0
-65
-122
0
-93
293
0
0
109
-152
79
-114
127
114
0
0
-357
68
-90
0
-271
142
-119
-149
0
116
354
-64
0
0
100
-120
160
128
-65
258
141
335
104
-129
558
290
0
88
221
0
0
-266
0
0
-127
-239
0
55
121
0
0
0
678
471
0
0
159
-63
253
60
0
0
-79
-197
0
-111
-124
-95
-149
151
0
0
-188
85
221
0
-183
-111
-128
-65
-184
57
0
0
110
77
-237
62
-63
-99
-52
67
-53
190
82
-120
105
-166
159
163
-90
65
-70
147
-80
173
-97
-165
281
-131
0
171
0
0
0
182
-71
-154
168
0
124
75
384
-61
-83
-115
-204
188
-106
-175
132
-83
-115
244
-61
0
-174
-64
0
-249
-226
0
-152
0
0
-102
-221
98
68
407
116
0
126
52
-101
114
-115
-196
0
-236
220
0
-133
0
-129
130
252
374
617
-50
-114
-205
-148
-110
299
84
-93
268
92
249
-82
-127
-97
-157
-228
-163
0
68
-84
74
-81
0
150
101
-74
-101
75
-90
127
0
0
0
79
-212
211
456
-267
0
-73
0
-54
-191
0
-356
0
0
-125
0
132
-145
0
0
0
0
-162
352
116
309
-100
-55
105
103
-132
-99
0
-119
-65
190
179
-93
115
137
-176
0
-145
-61
-102
-95
0
0
467
223
175
100
-137
-106
-61
137
-127
0
185
-81
0
-120
-68
0
208
-179
84
-129
-247
-155
-50
-199
-63
-195
0
0
173
0
-313
137
-137
295
0
-96
0
165
0
-116
0
-89
309
-144
0
-93
-122
0
0
0
-189
302
56
-191
79
122
-53
136
-116
0
-126
-165
298
105
96
0
173
-136
0
-121
121
119
54
211
-53
0
-144
-106
-171
0
62
-124
-182
-194
321
110
0
-83
-53
52
93
-62
-192
184
-65
0
-109
259
-57
-180
68
110
618
0
-256
-86
-134
0
-77
97
343
133
61
-51
89
0
194
71
0
-166
340
0
120
-175
0
0
115
-91
-63
0
0
177
77
61
0
68
0
-98
144
-87
86
0
-75
379
-154
-174
0
-130
0
-104
95
0
56
86
0
-192
132
228
0
-136
-78
-193
0
-208
73
0
0
-107
0
-63
-87
-132
0
0
0
69
-136
0
0
-77
0
-97
0
-99
-124
0
0
0
0
0
117
-87
0
0
0
-80
-91
0
-52
-89
0
-75
-123
-127
90
0
0
-107
0
-75
116
-53
-121
0
0
-57
67
57
-74
0
-84
-213
-93
0
-90
0
-215
0
-115
-111
0
-72
-142
-143
-88
0
-50
0
-106
-108
-128
0
0
0
124
0
-117
-147
0
-113
0
0
-60
172
-307
123
0
377
91
-190
0
-133
-115
-210
-362
-243
0
-105
-93
87
-207
0
0
-113
-151
-135
0
-64
0
81
117
0
0
0
0
288
-119
0
0
0
0
80
0
121
188
141
273
0
93
206
0
-129
-286
-121
-101
0
0
342
89
0
0
-208
-78
-99
-116
-146
-189
0
-171
-202
-84
-186
335
96
0
131
-66
290
-178
235
0
462
256
372
179
369
0
323
336
-187
312
-166
-314
0
-99
114
349
0
-98
0
0
0
0
250
114
-51
137
339
204
131
57
78
58
0
-174
0
63
0
-206
-139
105
209
462
63
133
-106
-212
56
0
345
0
0
0
0
86
266
0
0
0
-115
91
-117
166
0
-256
-214
0
0
-98
69
0
-99
-97
0
-107
51
68
-66
0
-77
-80
0
0
-103
0
-99
-155
251
0
0
-78
127
-127
0
0
0
0
0
0
0
-109
-91
-104
162
-232
0
0
0
-79
-92
133
0
83
0
74
-152
-79
0
-140
83
-127
117
84
0
-151
0
-92
103
-60
-55
-56
0
0
-166
63
-164
-102
0
120
0
-126
-94
0
-204
546
-76
59
188
0
-90
-66
254
-228
0
0
-135
51
133
-74
0
-56
0
142
0
0
51
-144
95
0
59
0
0
-215
166
202
-65
95
114
-98
0
0
282
158
179
-88
0
0
0
59
-76
-88
-62
-223
0
-135
-152
-135
0
138
0
188
-176
0
0
0
82
-108
80
117
151
0
0
84
204
-205
93
-92
0
0
-82
204
123
0
-88
-106
80
-261
0
0
-77
134
-152
-73
-68
0
-84
213
0
0
-74
-83
-80
0
0
-219
-132
0
-112
-84
139
-76
0
0
0
0
-118
-209
66
59
119
138
80
0
0
0
0
0
195
-166
0
67
-83
93
0
0
53
0
-265
0
0
-123
0
149
169
289
258
131
74
-199
0
0
0
0
206
-272
157
-126
-119
0
-91
150
0
-170
-81
0
-98
-151
-94
-201
-167
-192
61
-232
0
0
0
0
-68
-69
0
0
-84
71
347
-211
0
0
50
-114
88
-58
-57
-152
-71
86
0
0
319
0
-151
56
200
55
0
72
123
0
-145
77
-51
-63
-51
239
305
642
69
-102
152
337
0
0
-114
284
0
129
0
0
0
140
-113
-193
0
-160
122
0
0
-244
123
0
-90
50
0
0
-251
-121
-57
-65
0
0
0
68
-69
-130
51
249
-166
0
0
-115
-152
128
-166
0
-66
-98
-128
0
106
0
183
-171
233
194
-95
0
113
-205
115
87
0
0
-51
188
1028
138
175
-188
-146
-123
0
86
72
194
-56
0
134
229
0
138
-158
105
0
-334
0
168
-141
-153
-151
0
114
127
0
70
170
393
-152
-163
-101
-156
0
-162
0
-119
-90
-130
95
0
-206
0
0
-64
0
-168
0
-75
61
-234
0
199
-106
-92
0
0
0
0
-218
0
0
156
-53
-114
0
-80
0
-122
66
0
0
254
-82
0
-116
-152
-68
-143
-107
-63
-78
241
162
0
-150
-219
-280
0
0
0
0
-120
-104
0
-211
-71
-239
-62
-127
-230
-189
-75
0
141
-143
-150
-87
-99
-72
132
0
-111
210
0
-74
0
-130
-169
0
-112
141
-55
0
88
-196
-156
-87
454
154
0
813
0
252
-81
0
-59
0
-56
136
308
0
-194
75
-66
260
0
51
-79
-60
0
60
0
-56
-72
0
217
0
219
-131
-133
104
364
-135
-165
122
0
0
-232
0
-115
-231
0
152
114
0
-159
165
108
97
67
0
0
-222
-136
185
594
179
-166
147
0
0
0
212
164
90
0
0
50
0
0
0
0
-70
-93
-149
123
-244
0
-209
-265
-90
-151
0
-85
118
-61
-190
-117
0
-247
0
0
-109
157
0
67
-132
56
-116
-69
-82
0
0
0
-98
-161
178
-117
-60
0
-187
310
241
-235
-258
-168
159
-220
-100
112
0
-52
96
0
101
-223
-170
82
240
-288
-136
139
0
435
-142
0
0
-128
-78
0
0
0
-112
109
86
0
-164
234
221
0
50
-54
0
125
147
-102
100
0
92
66
319
0
140
0
156
0
-94
-58
131
0
0
-108
77
0
77
-76
0
-75
174
0
177
0
143
-96
-118
0
182
-58
262
-98
-110
0
-138
-74
0
135
70
96
-131
0
-242
0
0
0
0
0
-186
0
-199
75
260
78
72
352
64
0
0
-135
-52
0
99
-56
0
-89
106
-61
0
0
0
-117
55
0
-63
67
-52
0
228
0
-158
0
-97
200
-90
-189
-87
-166
-56
53
152
-120
0
123
123
80
169
71
88
227
-109
255
0
0
0
51
0
185
-276
158
127
63
-74
-53
55
0
0
73
-157
73
76
0
228
0
0
319
73
113
-138
-84
-86
0
82
0
0
85
0
0
0
0
-93
-70
-180
76
0
-67
0
444
0
51
88
0
0
-134
-89
84
-241
0
0
-193
-101
-101
-211
0
-83
91
-56
154
0
0
-96
-98
0
-402
0
-81
-358
-126
0
0
-162
0
118
0
-150
185
0
546
0
0
-58
67
128
-67
68
-164
0
0
0
254
0
-68
0
50
-101
-75
-148
111
328
0
96
-72
-184
-90
-161
0
-185
-120
0
0
-148
229
205
0
226
335
-125
-124
0
87
-98
-198
-51
-142
58
0
432
-72
425
83
313
114
146
-214
431
214
0
0
0
0
-140
0
60
0
0
-81
0
201
0
0
213
-203
61
-111
-192
-59
-170
91
59
0
-72
132
0
-232
0
0
-300
-249
78
-94
81
0
135
-77
0
0
-102
-143
-101
-82
0
-230
361
0
0
-64
0
180
0
0
0
0
346
53
-170
0
-72
87
-70
-165
122
472
0
-126
307
0
-163
0
121
0
-163
-180
-233
100
0
158
0
275
102
0
0
0
274
176
124
-101
180
0
205
259
379
-78
171
0
499
188
-135
0
-106
-144
-59
-237
0
0
117
-131
-149
113
0
-116
-179
-55
-212
-167
243
0
-86
-129
0
0
-80
-96
0
0
-169
0
0
0
0
94
-150
0
0
-211
-132
-121
0
-176
0
-70
-176
0
-98
-114
-105
0
-173
50
-130
-106
-150
89
-204
-125
-105
50
-118
0
-51
-189
-137
91
0
-56
-88
-164
-87
0
-128
-163
0
-199
-183
-188
-192
-329
0
-165
0
-152
-163
0
-59
-74
-94
-189
-120
-114
-111
0
-145
0
-60
0
0
-76
-129
-95
-106
-146
-175
61
-291
-217
-132
-120
231
90
0
0
74
0
61
-58
-154
176
0
-155
0
263
566
261
376
124
280
528
628
340
526
-50
294
329
375
235
353
114
0
-177
0
-98
-72
276
-103
-164
53
-78
250
466
-112
-85
-279
0
98
0
0
331
0
0
0
0
0
78
-99
352
0
-98
-211
0
-145
0
0
-101
0
-75
0
165
114
-64
458
184
0
0
0
80
120
-152
-140
-180
0
0
0
-183
130
-162
-154
-118
50
0
0
0
416
264
0
360
204
162
0
0
0
-173
-213
214
95
271
0
-90
101
148
344
135
203
407
0
158
-280
210
603
-133
168
358
618
342
-89
0
0
136
-219
-55
-61
-72
0
141
-86
-178
0
-144
0
-103
0
-158
-171
0
183
-80
162
116
172
0
0
0
-345
358
53
-241
116
0
136
404
0
-160
57
79
-68
-131
0
-105
-95
-98
116
-144
0
222
0
95
83
-65
-126
70
-218
-165
0
0
0
79
-59
50
117
0
0
171
75
51
-161
81
0
-211
0
-109
0
0
-104
59
195
0
-101
0
68
-141
-190
-117
-100
0
0
-77
-117
377
-129
0
429
232
-89
0
0
-153
-79
-64
0
0
0
0
168
-165
0
0
0
-108
0
-94
-65
101
98
134
-185
-200
-140
366
134
-93
99
-114
0
81
-97
201
-142
-127
-185
0
0
0
-114
108
162
-139
-272
372
297
-163
-251
-75
0
0
0
0
-140
-54
-155
-62
-94
0
77
0
-223
0
0
0
0
-167
110
-76
111
73
-94
0
0
70
64
51
-77
-223
0
-79
-86
0
0
0
-120
-106
-123
0
0
-78
-118
-137
0
142
-53
-77
0
0
84
-53
66
-125
53
-137
-252
0
0
-190
-236
-154
-165
0
-105
-132
0
-220
63
183
58
0
63
-117
0
-198
-80
-109
0
-82
96
0
0
67
215
-151
-257
-150
124
0
-123
374
-147
0
-134
0
153
104
216
199
53
123
-192
0
77
0
123
139
0
372
240
-141
0
-56
0
-222
0
0
588
-186
-192
86
-51
0
241
-80
0
0
-113
-146
139
0
-218
0
0
-105
69
0
53
0
0
65
170
164
127
0
-167
-161
225
259
-178
73
136
-106
0
0
-131
211
-114
-92
250
0
-58
119
281
-136
-109
-67
-348
60
0
-77
-83
111
-85
123
261
0
0
59
0
98
0
-106
-120
243
0
85
-256
0
-108
84
0
0
131
59
-108
-74
-130
268
0
0
-180
0
0
185
0
0
103
0
-66
56
0
-143
-50
-256
-292
-219
0
0
85
-101
-101
0
169
-150
0
-221
122
-62
116
127
0
-52
-87
107
0
-134
158
468
453
-56
113
-202
-65
104
164
0
0
-177
66
173
-92
0
116
87
-109
-116
-108
-64
-52
0
0
-200
-107
0
0
126
239
-190
-111
0
-222
-64
165
0
70
126
0
-93
129
0
-96
-64
0
-112
237
120
-96
0
0
-208
0
0
-174
-157
-102
-217
-114
-185
119
0
0
-238
-64
-200
0
-98
0
0
-276
-83
-149
-80
0
-141
0
0
0
-57
0
-92
0
65
0
-62
-128
0
0
65
0
0
0
-69
0
79
-142
0
0
-51
59
0
-93
130
0
117
77
0
0
0
-146
0
-116
85
0
129
0
-110
0
440
-74
0
115
0
-98
98
0
59
56
189
-264
56
0
-69
338
0
64
0
128
0
103
78
-85
-57
155
-162
-63
0
-57
242
66
-222
0
76
0
-70
-210
-124
-172
51
0
0
0
0
0
66
-89
-94
108
-150
-87
-67
-158
225
134
-264
59
-94
139
-116
-52
0
0
53
121
208
0
-94
123
219
93
0
55
0
-202
-122
-97
0
-71
-94
0
-202
104
75
0
0
-108
-77
-92
-65
-167
-120
0
0
0
-121
141
254
-91
-144
99
-84
0
-143
0
-88
0
0
0
0
97
67
184
0
87
0
-81
-87
-172
229
111
67
63
98
-77
0
132
0
-166
73
141
-141
69
0
0
114
0
0
148
121
0
133
-138
0
86
-52
-110
0
-84
0
-93
279
-112
-105
-144
0
114
-88
205
0
72
61
194
0
0
-58
190
158
90
218
102
126
124
143
0
0
-119
-83
80
-195
0
288
112
0
213
-70
176
-129
177
-60
54
0
0
74
59
-75
115
-190
-218
-50
0
0
-135
-79
105
238
0
0
-88
0
0
89
-68
0
-58
0
143
-118
229
-101
-179
0
-62
213
79
0
127
69
0
0
-125
-144
-230
143
-55
212
143
-235
-131
285
0
306
54
314
0
0
150
177
62
367
0
266
0
-59
0
-55
131
65
51
-169
-84
-62
-84
82
0
-85
0
224
198
0
-133
0
134
178
54
-55
103
161
121
-80
79
101
0
0
84
59
-121
287
157
0
189
131
0
-53
-121
142
0
53
-83
-50
200
0
-133
0
0
-87
-70
0
101
53
-107
0
0
-69
-54
0
0
228
197
157
139
0
130
-56
0
0
0
286
-188
-228
52
91
77
169
148
77
153
116
-176
0
0
-210
224
0
0
0
81
0
0
0
71
161
0
-57
-149
-85
0
-119
0
-68
-232
-139
-170
0
166
-94
0
0
172
0
62
137
0
130
0
169
-201
0
100
0
57
0
103
0
-162
481
-171
-68
0
0
83
0
-64
-160
121
0
-83
-67
86
-185
0
-219
-67
66
-131
0
0
-60
-75
69
0
0
-145
-168
0
121
130
-74
-125
-115
-118
0
-65
0
0
-72
-58
0
0
0
0
0
0
-131
88
177
0
-99
76
95
0
58
0
0
-198
-58
51
56
0
-106
0
0
-170
-173
126
-180
57
123
0
-240
0
0
-349
0
-129
60
-126
0
166
54
-203
145
0
183
0
185
62
0
-87
-135
0
194
0
293
-128
-230
0
55
-137
0
0
-92
-126
-168
0
0
-78
0
0
257
0
122
0
0
74
0
-87
-198
0
-125
0
-81
-116
63
-155
-150
-262
-81
0
-141
0
0
0
191
0
0
-115
0
0
-189
0
144
118
-111
0
65
86
-67
80
0
64
-169
0
0
-180
105
-50
-130
118
0
0
0
-176
-138
0
50
-71
0
0
-54
0
0
994
0
-136
0
-155
-65
60
51
211
107
-58
0
-110
354
-114
0
0
0
0
-105
-104
-98
83
0
0
148
-207
0
0
0
51
-70
0
0
-140
-53
0
0
0
-95
-113
71
122
207
-87
0
0
52
137
0
97
-62
-135
-87
-77
456
137
0
53
-259
-166
-63
0
0
-86
-76
-193
0
-233
126
-97
0
-73
-227
0
-208
-132
-50
-158
-95
0
0
366
-280
0
-135
331
0
-295
104
0
79
91
0
-166
-150
-59
0
0
0
-106
128
78
0
-50
0
100
0
54
-56
129
-141
-82
0
0
214
0
-185
0
0
0
-127
-161
96
72
0
97
-127
517
-182
-134
-76
0
-151
-76
0
0
0
-98
107
57
0
0
0
0
0
0
-75
0
0
-68
-141
-57
0
69
-97
0
563
0
187
-53
230
118
0
215
0
-61
118
-106
191
770
-102
-86
-110
147
-50
92
-116
0
73
-136
148
0
-175
303
0
-73
-95
-240
0
129
-56
-191
-112
-111
125
-148
-134
-72
-56
0
-105
-263
0
-135
66
-90
67
0
-103
0
0
-204
0
-109
108
142
69
0
0
52
0
-81
-205
82
120
-274
-205
244
0
-54
-70
-96
0
-81
-70
-195
0
50
-63
0
-98
121
238
-267
0
0
103
0
-82
75
91
-185
-113
-154
0
0
211
-91
144
-124
87
-194
0
-70
84
-76
0
-119
0
0
-69
495
0
0
-53
-87
204
-154
-62
-111
70
0
91
-153
0
58
0
-60
172
0
-53
-98
87
-106
-180
201
-134
0
-183
-143
-160
137
-122
0
-92
171
-63
357
95
58
182
0
-93
-193
0
148
-115
-148
-140
243
0
-158
-98
141
0
115
70
0
73
73
-179
0
-148
1087
-91
198
0
-96
154
107
0
72
0
0
-92
365
0
-61
-130
-231
103
-81
-67
0
-88
0
202
-56
-126
-97
88
0
0
0
-157
-133
0
-189
62
294
99
0
0
-52
-83
-244
0
121
71
114
0
0
0
-150
114
0
0
0
-53
0
-91
-79
82
65
79
-136
156
129
-64
0
-57
-141
0
-123
-167
448
0
0
-157
-188
633
0
0
-89
70
0
-62
0
67
-83
0
-114
-349
-94
-162
0
0
401
-148
-52
0
-273
-151
0
0
137
-54
0
0
69
0
-306
-95
-130
-217
122
0
0
-60
-87
-96
0
72
-75
213
-72
0
297
-87
-149
0
0
204
-127
-112
-106
114
-215
-77
0
0
-104
210
-109
-55
-187
-88
-84
-53
0
0
0
0
-58
0
-82
-116
-150
161
-101
-74
-145
115
-73
67
-152
0
0
-114
248
121
0
0
-219
0
160
-89
-239
93
0
160
0
0
58
0
73
-227
149
0
-158
0
187
-101
129
205
-178
58
-101
187
0
0
76
-168
0
-104
0
51
-81
0
63
-99
353
0
-55
-127
71
-77
-73
-190
0
0
0
-157
0
0
-145
104
-167
-224
0
-183
-105
207
124
0
0
66
111
-160
146
0
-67
-223
0
-86
133
66
-68
-155
68
333
99
-80
198
147
58
-52
-313
53
254
68
83
0
-96
195
76
0
0
0
0
-58
92
0
257
142
0
0
0
-82
-93
61
55
0
-142
-140
-73
-148
164
104
118
-105
142
147
-194
0
0
-214
-130
-125
238
120
-81
144
74
110
62
0
179
70
189
0
0
172
70
187
148
-93
0
156
0
182
129
-213
-299
0
-96
0
0
-58
0
-70
-56
184
200
-197
-92
-172
0
-116
87
-73
0
63
140
66
-207
208
145
90
160
220
256
83
0
0
128
204
0
0
-73
-86
-249
0
0
0
-119
0
-99
-73
-72
0
187
-83
90
0
0
276
170
-125
0
0
0
0
229
0
102
88
0
314
0
60
69
93
241
0
0
160
136
121
0
0
0
-84
-136
0
-80
224
85
199
-67
0
0
163
0
140
0
105
-61
104
98
136
0
0
0
99
0
66
126
87
0
175
-64
0
93
-184
0
140
225
-66
111
0
0
100
-150
-97
0
121
-97
0
168
151
82
98
180
0
117
-68
120
116
0
-98
281
0
54
160
0
0
0
0
-160
98
156
0
50
-93
50
0
0
136
-127
-137
-186
0
-92
74
-233
0
0
-120
-90
-57
0
145
366
-61
0
321
164
187
0
139
153
0
0
0
0
-215
0
-124
-149
-195
-72
0
-194
0
0
-55
0
0
71
0
0
-181
99
-160
0
91
78
207
-194
223
0
56
-57
-133
-53
-79
0
-137
0
-100
-163
0
-70
-126
86
-85
68
0
-74
-69
0
0
65
318
0
0
0
-111
228
0
116
128
0
108
-145
0
-145
-148
62
135
-104
-186
0
100
-141
54
0
0
-179
-121
0
-80
60
-232
0
-124
-170
-61
0
0
-117
57
-53
87
-140
0
0
0
-144
-61
93
0
101
113
0
-71
-121
-76
191
-202
-134
0
-103
-139
-227
0
-194
0
-190
-74
0
0
0
-106
304
145
-214
129
222
0
63
0
-56
0
95
0
-228
118
81
0
-154
120
322
-68
0
-134
0
52
0
175
253
-182
0
-53
242
-110
-168
0
-60
0
0
132
194
147
147
-79
-222
74
-73
-90
-264
-207
-111
122
-197
-163
-158
0
-128
0
0
0
0
0
0
-271
209
-157
0
-85
0
-194
105
98
-415
-85
-87
-260
-165
-82
-107
163
156
-65
0
318
0
0
131
352
165
0
68
-114
-124
134
0
137
0
0
-169
0
-67
-180
0
-175
-53
125
0
111
-202
0
165
0
-235
285
157
0
-61
323
0
-87
0
0
-53
0
0
-132
-278
0
0
210
0
98
-111
0
-69
87
-58
213
-169
0
-55
0
-129
-59
0
0
-180
96
0
0
0
-132
0
-104
0
0
-59
169
0
0
72
135
136
146
-101
97
0
0
-201
-86
0
-83
538
-207
-263
-237
-157
85
0
111
52
65
0
171
-170
135
0
-169
232
-99
0
0
-206
-91
-123
-73
-155
-98
277
59
94
0
0
105
0
-289
-312
225
-284
-90
75
-65
-108
641
81
-57
-84
-94
0
-225
0
-238
180
-181
0
-73
310
0
-54
98
51
0
-111
-92
-60
110
173
0
0
-85
116
-53
0
199
0
102
0
0
185
-212
-80
0
1020
-110
-138
-100
-144
392
0
80
53
0
132
-102
0
-103
-190
0
178
116
0
0
0
-164
-211
-145
-61
-76
-62
62
0
-107
-110
145
-80
119
98
189
58
119
266
-60
0
204
-97
-201
0
0
367
133
-72
147
128
-90
-105
0
-82
118
327
67
92
0
-193
107
0
0
-150
-190
222
-90
0
0
150
0
-170
-54
-162
0
-165
-77
307
0
0
217
-221
-74
-142
70
-67
64
171
-277
-118
-62
-93
306
-55
0
450
535
0
124
0
176
-151
-182
-89
0
-100
0
-105
79
95
-86
-185
-161
0
0
0
-80
-193
79
-79
-141
0
-138
100
-193
-223
83
-290
530
-240
-72
375
215
246
106
101
64
-309
501
-202
-157
287
203
0
175
0
402
0
-187
-82
0
-206
-222
-155
224
67
87
-272
-445
0
0
69
0
0
82
0
-89
-179
73
99
0
-126
-114
0
0
-325
0
-120
50
213
-82
0
-103
-93
0
61
0
-199
-239
-171
-140
251
-215
-108
156
0
-170
-129
-121
-101
197
0
0
203
-165
-77
-114
0
61
172
-123
0
83
98
0
135
-143
-187
-195
0
66
0
-69
-168
-116
0
-97
122
0
-201
0
-106
-182
0
0
0
-74
0
0
261
0
0
96
834
571
52
0
-76
-66
-144
-74
186
-256
0
-83
0
-69
0
-57
-146
-152
0
0
0
101
0
0
-114
125
0
0
-125
-157
-125
-102
0
-185
0
-114
-91
-188
0
0
-60
-88
248
0
0
0
0
99
0
53
-51
-239
-118
-152
-85
84
-104
60
-169
0
0
-223
55
0
128
0
0
74
-101
0
253
300
-103
0
-266
-195
-252
-236
0
0
-176
0
0
156
91
147
115
-91
-88
0
0
91
-105
0
0
85
0
0
0
-60
0
-117
71
321
231
-58
-265
-186
-196
-118
0
278
240
297
143
-233
-68
133
-245
0
170
-73
0
0
0
-52
-230
-108
-59
-110
-141
0
0
-82
0
0
206
213
242
74
0
0
135
113
161
-70
-240
180
0
215
0
-91
0
-56
-216
-261
0
0
-173
442
-54
-411
0
-141
0
0
0
-107
0
0
-89
98
55
0
0
0
468
260
101
303
712
365
125
359
391
0
367
442
69
273
134
88
-104
268
75
-62
0
192
-87
0
103
-133
-51
160
0
227
-106
109
0
68
0
-98
0
-80
-134
-134
0
-79
0
-96
0
129
-187
-150
123
0
-90
0
-98
0
153
100
251
0
347
0
-174
175
-65
253
0
67
-211
0
0
-84
297
419
-77
74
0
-98
0
90
134
0
-83
-70
-167
-80
76
-171
-185
0
0
0
150
338
187
0
294
-109
0
0
0
-61
134
0
0
-117
0
0
0
-71
0
-196
-71
-224
0
0
-78
250
0
0
75
0
-169
-176
0
91
-70
0
-132
-136
-74
-94
0
0
-214
-57
-146
-53
-141
0
0
0
0
-164
0
287
0
158
-57
325
-59
0
-94
148
0
-133
125
-154
93
215
-106
-155
0
-140
0
0
52
-183
0
74
-134
-233
120
0
-144
-152
129
-131
-198
-68
-151
66
-75
0
160
-251
-113
113
-232
-136
179
-103
0
-235
-259
0
72
92
0
0
-79
131
-136
-163
-130
0
70
56
154
0
0
0
61
-99
93
-56
-103
0
0
60
290
164
-83
189
71
-166
65
-96
-66
0
-192
-113
0
0
0
0
77
-170
-83
-175
356
-82
0
170
297
-75
125
103
269
0
-358
161
-181
-71
0
-65
-132
-123
-58
-159
0
-76
-67
-193
0
61
-90
-62
-175
-53
257
134
0
-160
63
0
0
0
0
0
0
255
86
-87
0
-221
-138
80
-84
151
130
0
-99
0
-118
220
-268
0
-53
-395
-73
126
-83
157
-138
121
475
283
0
0
0
-104
0
0
-172
-140
0
-52
-115
-81
-86
-135
0
73
-74
120
0
-131
146
0
85
-159
-71
75
0
100
0
174
0
0
-242
0
-96
0
0
-89
208
0
0
-118
0
490
0
203
-200
105
-59
-139
-215
-123
-52
0
329
68
0
0
-50
-186
0
270
-95
-133
-78
377
217
0
-330
522
146
-147
-178
132
0
157
0
-218
0
110
85
-120
250
-161
-102
0
126
-165
-119
-76
0
-166
0
192
75
66
-138
0
93
0
-154
-57
0
-161
-314
0
-166
-118
-88
-100
0
362
236
128
0
175
0
-102
0
0
407
241
-214
0
-53
0
-184
108
0
180
-297
-71
0
-78
0
0
-58
-87
0
0
-61
58
-83
90
236
103
115
185
75
-224
-320
0
228
53
0
102
-102
230
98
267
-143
-136
0
-139
-85
0
108
183
0
106
-122
155
202
59
0
0
-92
-125
-90
-228
-230
176
-106
50
108
-67
0
106
-128
217
-60
384
150
0
152
0
-201
58
-132
-258
0
0
0
-80
156
0
-100
0
254
-74
-77
141
0
-189
-84
-69
0
-77
0
170
65
0
0
203
-99
71
278
-175
142
0
0
-50
-114
-160
-185
0
-176
0
-132
-183
0
93
0
69
174
-170
-112
-104
56
51
-225
-269
-59
0
385
95
-129
0
63
95
-86
0
127
0
0
-79
100
0
95
-75
0
148
-123
-66
67
-69
0
154
-55
-60
105
84
-95
-159
122
74
-115
0
0
-128
-143
0
-168
126
-79
0
0
-307
231
192
-208
-102
58
-87
213
54
-67
-154
0
0
-251
-164
192
0
0
82
-201
-71
52
-139
243
-66
0
0
67
273
-59
0
-101
78
-185
109
-92
195
0
194
-62
-108
0
181
-164
-231
234
241
74
0
110
-92
0
-81
0
-127
0
-55
-99
-69
-143
0
0
0
280
-81
120
0
-153
177
192
208
74
0
-163
101
0
0
77
0
0
113
-60
-74
-104
-164
0
50
133
129
0
-57
0
0
-119
-119
354
0
140
110
-78
-78
140
0
133
160
0
0
68
0
184
108
-90
-68
51
-138
395
-64
215
0
73
0
0
0
-65
-85
621
0
0
-253
-111
-279
-62
-77
65
0
0
-264
120
306
0
58
-133
0
195
-161
-89
0
0
-60
159
0
52
-106
0
-110
100
-120
93
152
-166
-218
-290
126
-63
-105
-273
0
77
132
-106
-129
55
-63
68
184
0
0
-60
-63
0
62
-257
-286
0
-171
173
0
114
0
155
57
0
-179
0
0
154
82
94
139
-305
150
74
191
-162
0
-162
0
0
0
-52
0
-178
-175
0
-213
0
0
-120
0
183
0
-154
87
122
302
0
-223
0
0
90
-94
-141
0
0
0
0
0
290
-53
-176
-206
117
-86
-76
194
236
-113
-174
0
0
-71
173
-68
-197
0
76
-142
-77
-172
0
-134
0
75
75
206
0
247
-198
54
-143
0
0
228
0
-106
-125
63
458
0
-81
-85
0
0
0
-176
-306
-182
-127
148
0
0
0
-72
0
-84
0
0
-65
115
-85
-63
-149
97
0
-120
97
-79
-216
-84
209
-57
-75
-60
212
-119
267
-122
254
0
-72
273
331
-171
201
0
0
-149
100
-60
-51
0
0
-68
-71
-87
95
-55
-179
0
178
0
-123
0
0
0
129
0
-91
0
68
176
-66
106
51
-85
133
60
-71
-120
0
0
-54
0
0
-110
-64
-71
124
0
0
-211
-72
0
-162
-172
283
0
0
0
128
260
101
473
140
-143
109
177
0
246
92
254
0
133
405
0
119
297
-126
-188
-117
-66
-73
-72
-153
0
0
-223
-52
0
0
0
-61
-72
0
-137
-113
0
-164
75
-167
-51
-97
-93
0
84
71
665
0
0
252
-83
-159
-267
0
367
-110
131
-269
272
228
74
230
0
260
0
-80
0
-83
0
0
92
-145
0
-138
-72
-243
-70
0
-81
0
-88
107
71
189
158
-80
-103
105
-95
0
0
-127
64
-94
146
-83
-55
131
-56
73
0
-51
-55
0
0
0
170
0
-159
-125
0
0
235
83
-86
-236
87
-70
0
64
62
-145
0
0
0
-141
-100
0
0
-100
0
0
-89
0
-105
-182
-74
-288
-309
-106
64
172
-94
0
-63
-110
0
-59
0
99
0
54
0
0
125
0
-85
-63
-170
0
0
-89
-75
-85
175
211
0
104
0
0
0
-65
-71
0
0
133
-125
0
-79
0
0
-78
-186
-203
199
0
-186
0
-155
-113
-68
0
-93
-178
-59
0
0
135
-51
155
-143
0
72
0
-217
-143
0
-102
-57
131
122
-86
0
0
-65
-81
0
-57
-209
62
57
-68
0
0
0
0
0
-124
-62
60
-86
0
110
0
144
-87
0
-74
-61
0
-62
190
-150
-95
0
-183
118
0
0
86
158
125
-125
-74
-93
0
145
-189
151
0
0
0
0
196
176
239
260
0
154
260
-66
-58
-82
50
103
0
0
102
-269
0
216
0
-139
0
-66
0
112
424
410
345
334
-55
-54
85
-58
0
0
66
0
0
-88
192
-77
-114
0
64
-98
-113
54
-62
-188
-200
0
62
-247
0
183
-149
190
-181
279
141
-59
0
-60
0
223
55
273
198
-171
150
341
149
127
-111
0
0
197
0
141
-134
-96
219
76
0
409
-104
226
0
329
-107
-112
-64
-162
0
197
353
-144
-223
0
0
57
76
-224
-187
-325
-195
0
358
56
-138
-151
0
0
-243
264
-51
199
148
0
-76
0
404
57
-87
66
98
-52
0
-171
77
169
-135
236
0
81
0
-59
-150
0
137
73
0
78
0
-193
0
-173
0
0
355
-62
398
-81
-267
0
0
182
0
-149
-65
0
191
82
0
-143
-77
-234
-124
64
-62
-121
0
0
-221
-168
-213
-245
136
66
-133
121
133
-192
0
-73
-130
0
0
245
-136
-256
99
146
0
-205
-97
94
-64
0
0
0
61
-154
79
0
-96
0
0
-157
-143
-142
211
-94
0
-188
575
-298
-139
-129
132
53
206
-167
0
225
-118
0
-104
-84
-96
0
315
0
-108
0
0
-86
-97
0
130
0
104
0
-106
0
0
222
0
-137
-94
150
275
0
-206
-130
182
-136
-67
-88
153
0
59
-323
0
52
0
51
0
0
115
98
-178
0
93
-72
99
-71
-119
103
-133
99
-295
138
0
-54
165
-222
215
-70
0
71
-113
95
-155
0
0
-130
0
-183
-117
-182
86
-172
71
-182
80
93
176
-57
0
0
-142
-122
-98
0
0
99
71
-134
-206
104
-59
0
-63
158
129
0
224
0
-370
0
-137
417
0
170
0
0
-93
-77
160
197
-72
316
144
-63
104
-88
0
0
56
0
-173
-216
384
116
-125
95
135
385
0
-52
0
53
220
60
0
129
130
0
0
-138
-333
102
0
298
0
125
-74
-149
52
157
-247
0
-107
163
-55
0
54
0
-103
327
176
-145
222
-90
165
0
-140
-167
0
0
-94
0
-137
122
0
-115
0
255
0
-257
-170
85
112
0
0
72
0
-295
417
0
-85
-83
-276
-150
0
0
311
-157
0
-162
-60
186
76
0
-160
-138
-119
-318
347
151
89
-239
0
-162
-77
-227
70
-54
-63
53
290
-264
-216
-118
136
55
0
170
0
145
-61
90
0
-145
0
174
-91
396
144
-121
-311
-297
-105
-182
0
136
-104
137
-142
-198
55
-215
0
69
109
-209
0
180
-69
-183
-85
-111
-140
0
0
-89
257
-211
-102
0
150
276
-235
120
-339
-248
0
0
77
388
0
0
-379
0
60
-176
148
89
-53
92
112
0
0
89
-92
0
-82
0
0
-139
0
246
-84
-71
207
91
549
421
67
62
136
195
0
-245
121
0
95
144
136
202
-208
-140
0
-109
0
0
-63
0
213
0
107
181
-120
141
-186
-62
216
0
0
98
-94
-87
149
-250
-163
0
-103
0
59
0
149
-69
-120
0
0
0
0
594
-106
-110
-83
217
-118
-70
82
182
0
145
164
0
110
-157
0
-78
-153
93
0
-146
0
66
0
-371
-358
-119
0
-236
-127
-61
-58
-158
-67
-194
0
81
202
0
-136
180
204
205
172
-55
-140
77
-130
-65
82
188
321
0
-153
-85
-239
-90
-100
-122
-119
75
0
-150
0
-375
0
-194
113
59
90
0
0
-98
-81
141
-219
0
95
-97
0
0
81
-54
110
222
60
-56
-162
0
-143
-98
148
-163
-253
0
-143
0
50
0
0
109
0
87
-64
94
0
-77
-201
0
0
0
-62
0
0
0
0
62
-120
-197
0
0
-62
0
0
-154
0
-144
61
0
0
0
0
0
-84
0
-171
0
0
148
92
68
0
-216
-56
82
-68
-51
-209
-64
-65
143
-129
0
130
56
76
214
0
165
51
0
-131
101
0
0
0
0
-156
-148
0
65
0
-87
-117
0
0
58
83
0
0
-119
96
-119
-159
50
0
147
73
69
0
148
-151
-55
-162
-66
154
-92
97
0
-338
0
0
86
131
108
0
74
88
-189
0
192
96
91
0
0
-132
56
-100
0
0
-100
0
0
0
76
-139
157
0
-73
124
53
-61
-239
0
-155
0
-122
114
330
103
0
72
131
0
-71
89
88
-192
-151
-197
0
0
0
56
0
138
0
0
-54
-79
0
-68
-55
0
0
-141
-125
-140
-50
0
-139
0
-120
111
194
0
-71
0
0
0
64
0
186
-113
-83
-55
-55
-113
0
273
-120
0
59
126
0
0
-60
0
0
203
55
214
0
-103
-135
-107
0
0
0
54
0
97
-159
-128
0
0
0
-96
100
137
-100
0
190
-110
-54
-75
0
80
0
69
-73
0
121
-174
0
103
-177
-349
107
0
206
152
0
0
0
-160
186
0
87
69
0
149
-66
0
-174
66
124
143
259
-166
0
-64
-98
126
0
0
-58
60
-149
-79
0
181
0
0
-144
0
87
-105
0
0
0
-57
0
-114
-128
-66
0
0
-89
0
0
0
57
355
-116
0
-115
0
-137
0
-55
126
0
0
0
0
189
0
0
0
0
0
0
0
117
0
-144
-98
-152
-189
50
-88
-126
-97
116
-57
0
0
181
118
184
217
130
153
0
0
0
0
-88
-122
-114
-66
206
-125
0
-183
154
0
-124
-131
-117
-51
0
0
76
0
0
-57
-51
-126
-50
-159
0
-161
67
-170
0
0
0
-105
-106
-130
-74
0
0
85
-57
57
0
134
0
0
-166
0
-66
-103
-159
-59
177
-62
0
-58
-64
-72
-93
-56
-184
-52
-149
0
0
0
222
-55
-154
-268
335
104
-244
-195
56
70
-67
-117
-271
117
0
61
-119
90
-82
-133
164
-51
0
241
0
-56
271
-61
253
0
0
0
0
0
0
-172
50
0
-57
-112
0
0
0
-105
0
54
0
-202
-178
352
-122
0
-169
0
-131
0
62
342
-92
0
-111
0
-143
0
78
-71
0
-129
0
-52
58
239
181
73
101
0
0
-53
-157
0
97
-173
-121
0
59
0
141
1246
202
173
0
0
121
-120
184
0
0
132
82
1092
0
-131
0
109
0
0
-92
149
150
0
0
-152
173
0
0
-72
0
-142
-58
-78
0
95
103
-102
402
0
-111
-289
-66
-109
107
0
-64
-156
-94
0
171
133
70
0
-62
0
0
-60
0
270
-154
-80
-91
-52
-63
188
0
0
-113
0
-107
0
0
-83
-217
159
0
-221
0
0
-89
-124
0
-264
203
-67
0
0
64
0
0
-172
-181
0
-61
0
-101
-65
135
329
0
-232
0
260
0
-225
-138
-56
0
120
136
-107
-63
0
215
83
73
270
-367
-50
-76
-246
-176
-100
0
-107
0
0
130
1137
330
0
-129
-247
58
-214
104
0
0
67
0
-105
83
0
0
0
-115
0
0
243
0
-79
166
-111
0
-66
0
-200
142
-75
0
60
-172
0
-64
291
117
-211
-134
-206
218
0
0
0
0
102
0
0
0
164
-74
-121
0
84
-66
59
0
145
0
0
0
-315
0
0
0
93
0
-141
184
0
0
-159
-57
-163
-72
116
-110
0
-62
0
197
166
-91
-101
191
-61
-96
-118
0
218
-343
0
0
0
-191
125
-102
0
-321
340
209
-83
-109
0
0
-103
-86
90
148
-219
0
-77
-94
0
0
-128
-167
-394
-95
0
-104
0
81
-68
0
0
0
-116
57
-274
0
-74
0
0
264
-132
0
123
0
748
-125
-139
159
990
0
85
88
100
0
0
0
0
151
122
144
0
0
1514
70
168
0
71
0
0
275
-157
126
-70
0
-77
0
50
-138
0
235
346
-124
156
-90
-200
0
0
-187
-142
203
57
-177
-96
0
-74
-63
0
-76
-98
0
0
0
0
-93
0
-275
62
-101
85
0
466
510
0
52
-90
0
0
80
-97
-128
-70
0
0
175
0
0
0
-85
0
338
-106
0
61
0
491
113
0
-52
-158
129
95
-70
-69
199
-180
94
64
0
-68
0
0
52
0
150
235
-127
0
169
121
0
294
-233
0
244
0
-176
-159
-68
0
-166
-72
0
-168
-54
0
0
-179
208
183
0
0
300
0
-111
79
219
246
115
222
0
-185
0
-155
-104
0
95
0
81
-91
81
0
191
-85
145
0
-185
178
162
-153
-50
-75
0
-88
-55
-97
-195
0
0
-138
78
0
-138
-186
53
0
0
0
0
102
-122
0
70
130
-87
-278
162
0
-58
0
60
-288
69
0
168
0
-67
-56
-199
-102
-174
95
134
-66
0
-68
87
-139
-124
0
110
-91
0
0
-106
266
53
75
58
173
0
-106
97
-123
0
-175
0
0
-125
-55
-74
-125
0
239
100
0
0
0
-191
0
0
-115
-69
86
0
0
0
-59
-103
88
0
0
-86
-99
-154
0
-94
-166
-72
-183
-151
0
-142
0
0
0
0
0
0
0
-125
0
0
0
-161
58
-78
0
-122
-132
-129
-189
69
0
0
138
-79
-212
0
129
0
144
-55
0
-100
-143
-159
-75
75
0
0
-188
0
-222
-81
-90
0
0
0
89
114
-89
165
86
131
0
-96
-161
0
0
-75
112
80
0
78
149
-96
125
-89
0
0
176
-92
-232
-108
-113
-119
147
-95
0
-158
-114
-90
98
-127
-128
-130
104
0
-290
0
-87
-153
-119
-111
0
0
-156
107
0
-116
66
-53
-101
0
-64
-78
-156
-95
-54
-61
0
-140
0
-71
279
-148
-76
-73
-82
0
0
81
0
0
56
126
0
0
-70
-153
-92
72
133
83
-80
0
0
-176
209
0
-141
-238
-63
118
98
137
0
0
-225
0
131
0
0
116
0
-64
66
0
0
94
120
-79
0
0
-76
-172
231
-53
0
0
0
0
231
0
-177
0
-122
-94
0
0
-107
107
171
-76
-132
0
149
0
60
186
-118
71
75
107
-79
0
126
0
0
0
-92
0
0
0
0
-73
97
-88
-115
-66
-250
0
0
0
-193
0
0
217
106
-139
0
221
-73
0
0
0
0
57
89
0
83
60
-52
-76
0
108
-64
51
0
-85
-91
105
0
0
-77
0
128
-60
0
-172
-144
173
0
0
82
-155
-159
0
0
-107
312
0
98
95
73
0
155
-64
-57
-199
0
0
0
0
87
-84
-100
-91
0
-73
52
-253
0
0
-127
0
79
71
133
-97
0
-92
194
-103
180
0
0
-95
-50
0
89
0
-150
0
-53
78
0
0
0
249
0
0
0
0
0
0
-140
-107
-53
209
-87
0
0
-67
0
93
110
-159
0
0
0
-166
106
0
82
0
0
-211
0
-70
105
0
-107
69
0
0
171
114
-82
-82
197
65
0
-147
0
310
-56
91
-82
-91
0
-75
336
-140
-67
-146
-242
-127
60
0
295
-78
-77
-112
665
0
307
59
0
67
156
0
0
128
-78
126
377
164
-180
235
84
308
-104
-79
-203
167
-143
0
-102
0
-185
-150
-101
-81
148
-87
108
0
-234
126
183
0
312
101
77
-171
225
0
94
-113
0
-123
0
0
-96
-62
-51
165
-121
-118
-59
-54
0
-150
83
291
0
-355
0
-55
-96
0
-163
-145
-234
194
114
0
-269
-69
-103
-68
-140
-77
109
87
-111
-97
-102
-80
0
300
-55
0
-58
-131
-107
0
106
0
81
212
-190
-203
0
-143
-83
0
170
0
186
-145
193
306
62
0
291
168
-200
-62
-168
188
-133
87
0
-209
213
-108
-124
0
455
85
-98
-112
182
77
-98
418
0
-65
-168
0
-256
59
0
-58
-53
0
0
161
-130
-102
-83
202
-161
526
-153
0
0
-67
0
109
0
-201
102
0
0
80
214
52
95
-105
-85
-175
0
0
-322
530
0
-238
-80
651
-128
0
-62
-101
-63
71
-195
-131
288
55
-110
0
224
0
113
277
218
-117
201
-56
0
-108
136
-88
0
0
82
161
0
-57
415
97
-54
0
0
0
-197
0
-244
0
-128
0
-157
0
-272
-53
607
0
0
-149
-51
0
-71
0
572
0
439
-252
-91
-69
-58
162
-62
-52
0
221
-144
0
100
-136
-122
0
325
264
0
0
-237
-173
0
-109
71
70
-139
-113
-260
0
0
111
0
170
0
-88
103
127
0
-121
62
0
129
184
-101
0
83
237
-69
207
301
0
-228
-86
-113
-102
-132
0
245
650
-178
88
91
69
151
194
0
-60
80
-88
-53
-110
304
59
303
-71
55
65
84
-56
62
-112
315
67
0
101
-168
0
0
-305
0
-59
53
0
0
0
150
-189
0
-55
-260
0
85
160
-145
0
0
0
0
-101
-63
-104
86
0
0
-65
-209
-122
255
164
102
746
0
-231
-107
382
0
0
-335
0
163
102
0
0
68
0
0
0
0
140
141
-165
90
107
-225
-82
-133
-102
0
-145
-152
176
0
-166
74
-118
70
90
-91
-71
-275
319
179
0
83
-69
-64
-234
0
-149
-50
82
262
221
113
-315
85
221
100
80
0
0
66
0
-138
0
-64
137
133
-209
-73
-119
191
0
0
-68
0
124
-75
230
-195
-65
0
-140
114
0
352
-114
0
0
-84
0
67
255
-102
-141
0
-64
0
0
-64
-250
106
315
265
0
268
66
-156
-107
-123
-271
125
528
265
0
0
-74
0
122
75
-76
-160
0
59
-62
76
-185
0
-163
-130
151
-240
0
71
-145
0
0
-130
0
0
-310
-78
327
0
0
70
55
823
781
66
252
0
0
-155
-94
180
-105
0
-52
78
-61
0
-66
0
181
139
-185
0
-90
-142
0
-57
-105
60
543
60
0
-115
143
-54
-269
-79
-55
-69
0
0
-60
0
0
-101
-112
-63
0
0
-133
-211
-246
-50
0
0
-92
281
0
0
-182
0
57
-169
-58
0
0
-81
0
-65
-55
0
-128
-76
-140
0
132
-56
0
0
-230
-146
234
0
0
86
-145
0
0
104
-207
-136
-116
0
-116
106
-171
67
264
254
-163
193
0
176
98
0
0
189
132
-151
0
-75
86
-104
0
0
0
-184
0
160
85
-166
0
-130
0
0
-67
-180
0
-79
-165
-204
0
-234
0
91
0
-168
-178
0
-152
-63
107
-141
126
142
-142
-91
0
-53
0
-176
-139
0
-131
-181
0
0
0
-142
0
0
169
0
68
-146
0
0
0
144
132
108
344
97
173
105
-140
161
0
0
-112
0
0
-161
-95
71
0
-182
422
216
354
0
-67
-80
-135
-102
-201
0
155
-79
-145
-80
0
-207
395
0
102
0
0
-174
0
-95
-92
0
-164
-133
-236
130
0
0
188
0
-245
-146
-97
0
-96
-113
366
80
0
-75
-210
54
0
170
-186
0
-213
0
-98
0
-168
0
269
0
68
397
381
263
0
-81
140
131
98
132
0
74
-77
0
0
-144
0
0
56
-80
237
0
0
82
-240
0
-135
0
0
0
187
232
154
0
318
280
53
-164
587
183
91
113
-104
-59
184
268
415
-110
86
223
178
0
-164
0
156
-99
0
265
154
188
-57
95
277
187
0
87
0
81
0
0
59
186
84
0
0
0
131
64
0
232
0
0
194
0
352
439
-59
-118
0
78
108
-89
133
225
104
0
50
183
0
-62
0
-83
59
104
-104
-124
-177
0
84
263
0
-89
-167
0
0
0
0
-79
-72
-131
0
-126
0
-131
-142
-133
107
0
-113
0
100
73
-151
0
0
53
-80
-98
-94
-61
-80
-91
-261
-201
-69
-103
275
70
-170
0
-70
0
-120
131
69
0
-142
0
-284
0
0
0
-180
0
0
-168
122
79
0
0
0
0
0
0
-116
0
198
0
-163
-144
0
0
62
-109
0
-83
-119
-121
-118
0
-101
-97
0
-211
123
0
-89
0
0
-158
154
0
-128
0
0
0
0
0
-118
381
265
0
-85
77
177
-168
-118
0
80
-123
-156
-85
-56
-102
0
-143
-135
-142
0
93
0
0
-75
0
-111
0
-159
0
0
0
-148
177
-142
360
124
0
260
385
0
87
-193
218
-63
-89
154
-74
117
198
0
0
-162
-172
-155
-105
-96
700
146
51
0
154
65
0
0
-71
-53
0
0
-185
129
163
0
-217
60
-209
0
115
0
0
296
0
0
0
148
0
150
125
61
-123
-228
0
295
0
-274
0
0
-62
-51
0
0
-165
0
175
-53
-53
50
-171
-153
0
-66
0
-252
0
0
-178
-151
0
0
-97
0
-85
97
-64
-233
0
88
0
51
-174
0
0
128
0
325
-279
0
0
-111
-82
277
-279
89
-165
317
0
0
-167
88
202
69
59
0
200
-109
0
0
-50
0
0
0
0
0
-286
223
0
93
452
454
0
-210
-207
168
-263
-101
-89
133
201
0
0
408
-142
0
701
0
0
240
-113
-124
-192
0
-101
118
66
-97
-136
-167
-190
77
-50
179
127
-74
0
192
-128
0
-82
0
-59
133
135
71
-155
-268
0
0
62
-129
-82
0
563
-66
0
140
0
-50
0
0
-104
258
0
-51
0
0
136
-124
-380
-69
0
-146
-118
105
0
107
-182
-61
-121
-104
0
173
-153
-114
-120
57
213
-219
0
0
0
59
0
-127
0
338
0
-82
-81
404
0
0
-71
-222
192
146
0
0
-84
0
126
-95
-116
0
-94
0
209
0
-100
-76
0
-116
0
-129
0
0
0
63
98
0
132
208
-145
0
-61
-169
0
0
192
0
-124
0
0
84
-303
157
-102
138
0
83
293
0
-59
91
-73
144
250
0
-190
-55
0
-91
-124
426
-94
-95
167
-54
0
0
-96
59
221
71
126
165
116
-59
-352
119
-71
-226
432
60
0
0
-109
96
0
-67
173
0
-83
133
-90
0
161
-135
-170
-109
-92
-79
-134
-92
-62
-179
-56
0
0
0
415
76
-132
-202
0
-157
74
0
-107
0
-103
111
189
-172
241
-92
187
-200
-52
71
0
-61
-116
128
520
0
285
-51
-119
0
-196
60
0
0
163
90
-282
0
-199
-244
-300
263
-124
-319
71
-134
151
0
0
-138
0
0
-105
-129
-201
0
-104
-78
61
140
0
0
137
112
-108
0
0
-262
-100
-234
0
213
90
-86
348
65
61
118
70
0
0
269
-213
-97
250
168
122
0
124
192
0
110
-151
-80
107
-109
181
0
204
0
-138
68
232
475
130
-231
-190
249
-165
0
141
-73
-88
53
0
-210
82
667
-96
132
-263
102
0
151
-63
-122
-201
53
0
-76
0
0
-157
-80
189
167
0
0
-65
169
0
-209
89
-95
0
-52
-71
106
0
-135
50
-140
-134
0
276
142
-139
83
-52
-142
-114
69
-220
0
-154
-86
0
119
-169
0
-74
-110
0
0
0
-64
59
-51
182
0
0
0
0
-267
0
0
-191
-102
-118
156
61
0
0
-105
0
0
-128
0
-57
132
114
292
0
141
-51
-255
-103
65
-198
0
-169
-190
-94
-77
141
0
-205
0
-81
73
-209
-121
-135
114
-153
-79
0
0
-95
-73
-183
59
-148
131
0
-311
-228
0
-64
-157
335
-55
-154
0
0
-153
0
0
0
-55
0
52
0
127
-172
-153
0
128
0
66
0
-127
-162
206
145
57
0
-178
-107
0
192
67
0
-74
0
-77
-99
-88
-87
119
-62
-183
142
82
-58
0
0
-222
-107
0
218
-103
0
-61
0
-115
-123
0
-135
0
110
120
-170
0
0
253
-51
-270
-153
-100
124
0
0
0
0
76
0
98
322
-151
131
-121
-250
-266
-204
0
-146
63
0
97
-152
158
0
128
0
-83
-156
-118
-223
0
0
0
-177
-103
0
88
0
-100
-138
-204
-57
-159
0
-108
-122
131
-54
-50
-170
0
137
0
-124
-100
-230
0
-76
-123
91
-65
0
168
-123
-89
-75
109
0
-266
-158
-200
-137
-223
0
-56
66
126
0
-73
0
158
-103
0
83
279
0
0
-187
156
193
0
78
-57
-61
0
129
-62
-201
163
0
0
0
-110
58
-78
217
-56
0
-71
-99
328
74
-381
0
0
0
-164
0
-110
-134
71
-67
-129
0
0
-117
0
0
0
93
96
-65
0
263
-105
0
-172
-84
-212
-69
0
0
-141
0
82
-185
-279
-113
0
108
-55
497
0
-66
-123
0
146
-118
173
0
147
0
126
172
-58
192
0
132
125
260
285
0
0
-56
0
147
121
0
0
-101
0
-117
89
0
52
-113
-78
0
295
51
137
-61
-91
140
50
-165
0
-92
0
96
-81
0
-155
0
-84
0
218
0
0
-71
0
0
84
0
0
-78
123
133
0
-170
-209
85
-83
-119
-112
-89
-80
79
0
0
81
98
-88
-134
-160
0
-199
159
-59
0
-160
-195
0
-180
129
-122
-108
-52
-69
-98
-205
-59
-163
0
-82
0
-86
-57
0
-70
-81
-130
-187
-188
0
-149
-110
0
-85
-62
0
0
0
0
-65
0
72
0
122
64
-155
0
-72
77
-101
-77
-71
106
63
-64
-55
-66
-128
-116
-63
106
200
-175
-155
-243
-59
-76
-192
107
0
0
54
98
-127
262
-228
-99
-112
170
58
0
96
271
192
-261
-126
194
0
0
-135
64
101
0
-56
113
292
0
-86
-102
0
-91
-76
-186
191
195
0
0
64
150
-88
-79
-61
0
518
-242
0
-213
-157
-93
137
0
0
-119
-247
139
91
0
136
0
56
-214
0
76
-55
178
222
-343
-63
-315
480
-120
-88
-326
0
0
328
-127
-235
-95
99
0
0
0
-146
-66
137
-132
-209
92
-136
187
-60
-82
57
-91
183
0
0
159
-118
92
0
60
0
0
190
-136
-74
-96
217
140
0
201
-57
99
-83
298
0
-167
136
0
56
0
-139
-68
0
87
70
-66
-198
0
0
0
0
352
0
-61
-158
-198
159
-311
0
-136
-131
128
306
122
476
0
125
-112
-143
-50
-93
-69
50
-196
0
-57
770
110
0
285
75
0
0
-140
176
81
150
169
-117
61
77
-67
-124
-135
-125
69
0
-98
0
51
-152
55
0
0
-156
-69
-152
75
0
-91
125
-86
0
72
74
-167
-104
354
92
241
-174
437
-114
-210
0
0
0
-143
0
214
-68
461
-146
0
-62
-150
-64
89
0
-125
124
419
0
0
-155
-185
-158
189
54
202
0
0
222
-208
0
0
119
-73
231
0
0
0
-121
-159
-58
0
0
-97
69
-66
213
-58
102
0
-164
-253
119
247
-97
356
-101
-128
0
141
-95
56
-86
57
0
-64
-142
-189
245
73
188
81
-127
0
0
-183
-207
-88
-311
-112
134
143
87
141
123
-79
142
-82
272
-110
0
56
0
0
0
124
0
242
0
-336
-135
123
0
-66
-526
-65
453
64
0
218
-161
0
344
541
-62
90
0
638
0
-148
-116
202
-149
-173
90
-143
-59
0
528
-191
0
-73
-188
71
-252
0
119
-135
0
-125
247
243
0
0
-124
-186
-194
-158
255
0
149
-190
398
80
300
77
0
-58
-79
-143
0
0
-139
140
183
202
0
-60
55
642
-59
144
-93
0
-109
58
0
-240
-117
207
-67
103
-157
-143
-72
-140
0
304
0
-177
0
-167
128
-114
217
183
357
-101
200
0
266
-120
-54
244
-169
-169
-96
0
0
0
58
406
0
-56
-86
0
172
0
103
0
0
-138
165
-205
387
-113
-162
-400
143
263
-326
-92
-177
247
130
-89
115
-77
96
67
73
68
-176
-169
-106
686
141
-64
-96
-212
100
0
0
-120
0
0
-150
56
105
-75
0
532
311
-78
-77
63
0
0
0
296
-180
118
-129
-61
160
147
170
0
435
-112
-133
0
0
-96
127
-187
108
0
-85
-157
0
0
-216
165
0
90
153
-127
-120
53
0
354
-93
-121
301
-132
339
101
-67
0
-136
85
0
55
0
136
-65
0
126
56
0
84
58
101
-72
-141
-138
0
-91
-79
-77
-170
292
203
100
0
-288
-87
-103
224
146
201
0
159
-128
0
-182
182
0
259
-82
0
-111
126
0
0
-55
57
-237
-138
-90
0
0
0
-161
63
-204
186
-100
-119
0
0
0
197
106
-134
0
-51
65
-105
159
86
-56
0
-83
0
76
-79
63
274
50
0
-65
-58
0
222
0
150
-274
-171
0
0
-70
0
-77
0
-82
168
0
-79
-129
0
-331
124
-60
0
0
-79
90
0
-91
128
0
-63
67
202
66
78
-56
0
0
-180
264
0
-109
111
187
139
101
-143
-96
-90
0
0
104
65
0
66
0
0
0
235
0
-152
-96
0
-65
0
323
0
0
-113
-58
199
-55
157
93
147
-57
0
0
-74
301
-60
0
-55
-129
0
0
108
-97
0
-73
-117
0
0
0
100
-210
-180
-99
169
0
0
-85
0
0
-93
0
216
-74
-81
-243
-97
131
0
0
-149
226
-68
-184
0
82
145
174
0
0
396
0
135
126
-63
79
175
92
-63
0
-137
253
0
54
-131
-93
-75
-155
-138
-233
54
161
0
0
-282
-102
0
-83
0
153
357
-312
-186
-127
0
69
0
0
0
0
52
230
215
0
82
0
-171
-96
-213
-104
-90
-146
-81
-138
-219
0
159
0
56
-147
-69
-135
-109
0
-109
120
181
190
0
156
0
-160
0
0
-114
-98
0
-77
-69
-162
-162
260
-146
127
-111
0
219
0
71
0
-221
-259
-119
-165
0
-148
-56
122
0
0
54
-123
-144
0
0
-54
63
0
0
-67
-84
-96
52
0
-177
150
112
50
0
147
0
90
159
-257
-187
79
0
0
0
0
0
-76
61
-78
55
0
60
0
56
0
-124
-81
75
-170
0
0
-176
-212
-178
0
-116
83
91
-108
308
0
0
0
0
0
-63
0
-115
-54
0
-321
0
0
-176
-190
0
-88
-166
0
0
0
244
0
-129
0
0
0
-122
0
0
-218
0
-53
-110
193
0
0
-80
76
0
0
-70
-119
-90
0
98
-55
0
0
-110
0
-104
-178
-90
0
0
0
71
0
0
-65
-165
297
0
200
-163
0
336
355
0
-89
76
-195
-81
0
-171
104
84
-118
-133
0
0
-141
-56
-185
98
-55
0
0
0
-97
-119
-80
-94
183
-142
-74
0
-59
-66
0
-132
-85
-127
-89
-76
0
0
-133
171
-250
272
226
0
-230
139
0
134
-134
-56
-159
-246
-99
0
-114
126
-135
-69
0
0
-98
193
101
-140
-81
54
118
131
-144
121
109
0
0
-146
-116
-171
0
0
0
-137
202
-147
0
83
0
0
93
0
-77
0
0
-129
0
0
0
-102
0
0
0
-160
0
88
-94
291
173
112
257
-104
107
-91
-58
156
-172
0
-228
-143
-89
-84
-175
137
0
60
-67
-223
114
-198
-284
-174
85
-142
54
-170
0
117
-123
0
-103
-174
75
-238
-275
259
-267
123
-121
-74
-241
-170
0
118
-85
147
103
0
-189
-162
0
154
149
-303
285
134
58
0
474
-60
601
0
0
-149
-137
0
-93
0
129
151
0
0
63
93
0
-108
116
-184
-59
203
0
0
0
-201
0
-108
0
-57
481
-124
-119
-52
-164
171
0
-66
0
-209
0
185
0
-107
-142
-61
-86
169
0
58
-58
250
57
0
0
58
78
-99
0
-69
-114
-126
115
0
0
67
308
86
-67
0
0
0
-94
0
0
479
136
171
-100
0
78
282
-139
116
168
581
165
131
360
53
0
60
-65
248
95
0
-139
-132
242
-129
-134
83
208
-276
54
156
-84
-64
-114
0
147
215
0
-155
0
-133
264
0
-189
0
-266
0
0
0
-102
-83
152
158
0
-89
103
-182
-61
-99
0
0
-260
150
-126
0
57
-75
0
-225
-57
107
114
0
111
-144
475
302
-150
-156
0
-50
-50
-177
0
0
88
-106
-312
54
-85
125
60
-53
148
-64
186
0
-204
0
-51
225
-113
0
-62
0
-95
130
0
0
0
-178
-76
67
128
-156
258
57
-163
-70
0
369
-194
461
-78
0
80
0
-52
59
0
0
-89
183
-112
123
-151
-130
232
-53
-343
0
237
82
0
62
62
0
-142
-209
246
89
0
0
191
0
-75
302
0
-154
93
0
0
-148
0
126
-119
-117
227
-79
-129
73
201
87
0
0
-129
85
0
-294
0
-268
100
-184
302
0
-52
-152
-86
0
92
-88
0
0
0
0
0
75
102
-91
70
0
0
-240
0
232
50
0
-107
0
0
-59
-169
146
-74
0
-210
0
103
0
0
0
71
287
0
95
0
197
0
0
-133
0
0
0
125
-134
63
-107
-106
158
-57
143
0
85
307
-52
-147
-51
0
0
-301
192
58
110
0
0
129
0
0
252
0
-198
0
0
0
-260
-120
174
0
250
0
-185
126
135
109
299
239
754
208
0
-203
0
0
-67
411
159
-216
0
0
0
-197
-64
-57
-220
0
-124
134
294
-178
-86
0
183
94
0
156
93
129
0
73
0
-112
-135
150
273
121
-80
166
0
0
327
-131
-86
156
146
139
75
0
72
-172
-225
-130
0
0
164
0
84
63
-79
-87
210
196
79
85
78
60
-82
-98
-79
137
-163
-148
-147
184
151
-53
-135
-59
-106
0
94
-170
0
-233
-91
-62
81
845
198
-158
-139
-254
0
0
71
321
0
0
-63
-93
-108
-114
-68
-81
292
-192
-84
-192
0
211
0
0
0
0
-55
0
0
98
-118
-187
-69
-181
0
-190
0
-106
-189
-64
0
0
63
0
-89
-80
-55
-83
-74
127
-93
264
0
-83
-141
-72
222
286
0
0
62
307
258
89
875
351
0
-132
95
0
854
260
-60
238
-112
-88
-65
0
-196
-73
-156
-100
0
90
0
-170
0
-129
-240
270
0
0
58
0
66
0
-115
0
0
-67
0
0
-141
149
131
-86
-61
0
77
0
0
-88
-187
-286
-130
0
0
109
251
201
116
174
118
255
0
0
-161
-80
118
-51
106
-168
0
-83
177
143
67
0
0
-212
168
0
228
119
0
246
0
181
0
0
284
226
136
130
0
-129
-167
58
-223
0
0
0
-98
-76
-67
-119
0
0
0
0
-121
-122
-63
-80
-92
0
-84
-102
0
-151
-84
-68
69
-202
-85
0
-93
232
59
-76
-72
259
-87
-239
60
140
-54
-88
-56
-68
82
0
-131
78
112
-125
0
-136
0
-122
-86
78
0
118
-84
0
177
-101
134
-72
-99
-66
-59
-53
0
0
-127
0
-63
0
-131
0
-141
0
0
0
0
-98
-62
0
-260
247
-237
-76
-89
0
0
0
302
237
-121
275
350
126
146
121
420
0
219
0
-58
106
0
99
142
-163
0
0
0
253
115
-216
-236
-87
0
0
0
-124
0
-135
-130
-199
-145
-146
0
239
-176
-265
-247
-167
0
-53
-270
0
-96
-61
0
-157
246
189
176
177
281
0
211
247
127
0
71
0
-270
279
0
0
-173
238
-100
202
0
0
-117
-69
125
-131
320
300
135
0
361
-59
50
64
293
215
310
149
154
311
0
100
0
132
0
0
198
144
334
0
0
-116
221
-143
373
0
-114
-141
0
-145
-209
160
0
-215
-103
353
0
102
203
0
0
-321
-100
-132
-276
-167
128
-111
0
0
0
51
123
-60
-155
-115
90
236
188
-79
-175
52
-110
0
-147
-83
-231
-182
-132
-188
0
0
0
0
300
-74
-54
0
0
0
0
0
0
-95
0
0
-112
57
65
0
0
402
-94
0
-203
0
-129
-61
-101
-103
-233
89
70
0
-61
-56
0
-182
-102
-163
128
-107
0
-106
-105
0
0
408
163
52
0
-120
-75
-129
117
-145
-114
188
182
-272
0
-191
0
-208
120
147
-166
0
287
-180
362
146
257
199
226
0
0
-158
-318
-183
121
0
-75
0
0
-169
60
-61
96
248
0
-111
0
75
0
-59
-298
0
-214
199
0
-130
86
-82
-114
-101
-83
99
-93
0
0
162
-101
0
-187
143
122
0
0
-157
0
-71
0
170
92
236
95
108
-182
68
0
0
137
98
-122
-118
0
-131
0
-265
50
0
-172
0
0
-82
344
89
0
111
0
-116
129
0
0
-247
-130
-185
-166
394
-160
-78
-143
-77
158
-153
0
-163
67
0
-62
0
67
101
-329
0
110
97
0
72
211
57
71
-145
0
-159
-94
95
-57
266
-377
137
-53
0
186
-249
-164
0
123
0
0
83
0
79
131
212
0
-257
0
0
58
0
0
0
0
0
194
-166
-119
-82
-173
-87
-56
151
-134
0
0
0
129
-60
-72
0
0
-177
0
-93
-271
-163
-93
0
0
-84
-51
0
377
0
0
64
289
0
-226
-132
-190
-60
0
0
-56
0
-111
0
89
0
-209
72
79
-116
78
0
0
-137
-149
-208
0
118
-51
-102
166
-122
0
-294
-51
-100
-197
420
53
0
195
0
140
56
-94
0
207
-77
-156
0
88
0
114
-84
0
0
87
0
-117
65
-59
-152
-135
0
0
316
318
57
96
0
-256
-209
132
-88
0
304
-98
175
0
-304
-64
57
0
-94
-114
-82
0
-176
-153
0
0
-66
73
194
0
-51
-161
0
292
0
221
87
0
72
0
-98
0
-84
-111
-246
0
88
148
0
-60
-115
0
68
0
223
0
-139
-236
0
-76
67
-263
0
146
-52
221
0
0
-102
0
0
0
-221
-130
-147
-54
194
113
-50
0
129
75
0
0
-95
-257
0
-249
-174
-84
166
-200
0
-82
0
0
-83
0
114
61
207
-100
0
0
-160
58
0
0
-154
62
-52
-151
0
-77
-111
288
-108
-84
-299
-127
241
-67
51
0
71
-50
-300
124
0
-211
0
0
0
0
-58
-70
0
-124
-118
78
0
0
0
0
78
-100
0
171
-190
0
-61
0
0
123
264
-315
0
124
-138
-196
-197
151
-292
0
117
-198
338
0
-166
0
-65
74
94
-140
144
188
-76
-150
-93
0
-58
-136
99
0
-173
-127
171
106
-143
-234
-254
235
154
-51
215
103
-139
296
-181
-80
105
74
-75
91
-154
73
-68
-117
-352
0
0
0
-86
-102
0
-148
-73
308
142
479
-92
102
0
571
129
87
-51
-53
-68
-140
138
0
-294
210
0
57
50
146
-153
0
0
0
-77
-125
0
0
0
-95
279
0
0
0
-141
70
79
-65
-68
290
-180
0
62
0
-50
0
0
0
-120
-79
0
0
-172
-59
0
-147
-169
-175
0
178
0
126
-194
0
0
198
190
64
126
0
0
0
65
-165
226
148
-80
-150
0
0
175
-57
51
58
122
-146
-96
203
0
0
178
246
101
0
60
219
220
0
349
0
127
-192
-354
0
123
-241
0
0
211
104
-164
-54
283
0
-126
-127
259
-192
0
334
363
-91
282
0
0
413
176
0
532
100
0
0
-78
-141
144
0
107
110
-59
0
0
113
-103
-179
0
0
113
-87
0
0
-100
176
-66
68
302
-73
498
170
185
135
-177
-126
-77
0
82
118
0
0
-129
130
85
-139
101
0
-181
-153
0
-72
-159
0
0
0
-97
0
0
-96
0
-85
-85
-88
-212
0
-81
-91
-76
171
193
101
0
95
86
-154
0
-68
-65
0
172
-66
83
-135
0
-96
-91
106
-129
0
0
0
123
0
0
0
0
0
97
78
385
0
-134
51
76
0
73
-92
0
-80
123
-160
0
-120
-118
-66
0
0
164
-118
-89
235
0
-73
165
0
-146
0
194
0
-149
128
129
0
-63
0
-145
0
220
0
97
-150
181
0
-180
-54
0
-57
-158
175
60
0
0
73
0
-247
68
-109
0
0
-161
67
0
-180
65
190
77
0
0
0
-88
-104
0
-82
63
141
85
0
0
61
-63
125
64
-138
0
159
0
62
0
-94
0
0
172
0
0
0
74
187
252
302
314
184
89
366
244
142
0
80
-102
77
276
-101
91
157
141
-79
237
-51
0
-54
-70
0
322
-174
0
-104
152
108
90
-131
0
0
0
0
-118
-58
87
0
61
-113
0
0
-120
-113
-244
-232
114
-78
0
0
189
0
176
0
0
315
-180
59
0
125
-137
0
-153
-139
-82
-67
0
0
-52
-135
66
-67
-168
153
132
0
-96
172
307
99
-95
0
105
0
180
0
-154
0
0
0
388
-103
246
-80
-202
0
0
0
97
54
-162
-75
0
-52
0
203
-54
-96
115
-152
-297
0
0
0
0
0
-96
-154
0
-95
-80
64
54
-135
-56
130
-59
0
-98
-66
81
-112
71
-99
-213
0
91
0
0
55
0
-95
-106
87
0
-88
0
114
-78
53
0
138
-141
0
-183
0
0
-189
140
0
87
71
0
-59
0
-114
0
0
-114
186
0
86
-66
-79
0
0
133
-128
62
0
-79
-82
215
-145
-112
-134
-121
-54
218
-140
-226
290
56
-220
0
0
0
-58
-256
-116
0
93
141
-73
-117
-145
81
0
-232
-156
-141
0
-160
-55
158
0
0
-152
93
0
-166
0
314
-57
0
0
81
60
-61
-140
0
0
-65
79
0
57
-151
87
461
0
-83
0
-117
0
-63
0
-116
432
-145
-51
-115
-133
113
55
-84
0
-146
152
-152
164
120
193
78
0
161
-166
220
0
-226
0
-320
329
-153
-77
-55
55
240
0
-66
-79
0
0
-292
-122
-76
-210
-158
0
-228
67
0
-52
0
0
81
-103
90
-209
712
-138
-251
0
0
-112
108
65
164
0
135
166
-98
-95
0
120
0
-87
142
190
-51
-79
147
-80
0
50
107
-122
-132
750
0
0
0
106
0
0
0
0
74
0
289
105
0
-131
-166
-129
-61
0
-90
0
0
-219
341
0
87
0
-57
0
-162
-216
-59
333
-322
463
-68
0
-126
0
-166
0
-140
0
-87
0
-66
-172
55
103
119
0
140
543
-463
78
237
59
-118
0
-163
-51
0
95
-80
-135
0
-250
67
242
0
171
-127
-333
0
189
-110
321
0
-172
117
0
-314
-171
-64
-63
-65
68
246
0
-155
-312
-97
114
349
-95
243
98
-183
55
62
-94
493
0
242
354
-105
-86
143
-96
251
64
65
-85
-76
-88
-53
205
-83
-212
0
-182
-106
123
-125
-56
-174
0
279
137
106
-72
-53
-91
0
-176
0
-144
121
-129
-69
-206
181
0
-91
-173
0
-117
0
0
-78
0
185
587
167
0
399
-106
-153
0
-90
-51
0
221
0
-261
-318
0
0
0
0
0
0
-159
567
0
-119
-57
183
-124
0
-99
86
132
-101
57
56
359
-269
186
-187
0
0
-64
0
0
-89
-126
0
-94
438
235
0
-185
-67
0
-205
-171
-132
200
207
-185
0
86
-193
0
-84
0
0
0
-66
-119
-131
0
0
0
83
68
0
-72
-62
-61
-93
-120
0
100
-185
-131
-57
-83
-61
-71
173
0
95
-101
250
-54
-56
0
0
-143
64
0
-55
-87
0
190
-99
54
0
112
0
290
78
-167
0
0
-171
-289
-66
-148
80
0
0
-72
-58
229
63
65
0
-143
62
-90
-171
-131
81
209
521
168
0
85
0
-179
-200
-51
0
0
1151
-78
87
-193
131
-118
60
-76
112
-114
-153
114
-181
0
-90
-181
-97
-98
0
79
60
184
-55
0
350
-62
-89
-150
0
202
145
-186
185
-51
131
440
0
0
0
67
78
308
0
0
110
295
0
0
-216
-120
-93
0
0
0
204
-163
-88
-55
-72
0
-142
-198
0
187
-131
455
0
121
-85
224
257
0
-129
284
214
0
-59
-123
0
74
0
-125
0
0
0
-253
0
-90
310
-123
0
-67
-212
159
0
201
0
-225
81
0
560
0
317
-178
0
-72
0
298
0
192
0
71
-61
-103
-85
173
0
-223
0
-138
-116
-86
52
128
0
0
0
0
0
-119
-192
0
0
-86
99
-128
143
0
0
-56
-81
-151
-198
100
106
285
79
-121
65
-169
0
0
-96
-87
63
-74
-50
-104
59
0
-57
-89
0
57
64
-126
54
107
0
145
-148
0
0
0
0
-171
66
120
-203
-179
-119
-227
-189
-188
0
-60
-114
-105
0
0
0
0
-190
0
0
-101
0
0
-118
0
0
0
-90
150
-134
0
-65
-78
0
-100
81
0
163
-142
0
-204
57
82
-61
-143
0
-78
0
0
-61
0
-152
-93
-58
81
0
0
0
-104
-114
-145
-84
-95
0
0
74
0
0
-167
0
0
0
-202
-59
-60
0
0
0
0
0
0
-193
150
0
0
0
-80
101
-136
203
0
0
-258
0
0
126
0
-121
-240
0
154
0
232
0
0
126
96
0
211
-122
-116
-129
-162
-85
-71
0
-114
0
-112
-86
50
-99
-113
-136
-105
-50
-51
-127
-55
-118
-77
-60
0
0
-111
-139
-100
0
-109
0
0
-112
0
0
-133
57
0
-181
0
0
-259
-228
-132
-119
0
80
116
100
0
-141
158
-74
-184
-292
-148
-119
-105
-125
0
0
0
-115
-62
0
-141
-99
0
-96
68
-102
0
0
-105
-68
-55
-137
0
-94
-165
0
-124
-79
253
0
-67
71
262
226
-147
-143
-63
-175
0
0
0
188
0
0
272
52
0
0
0
0
0
114
-72
0
-134
276
247
396
651
278
190
0
406
302
122
456
57
85
171
-163
158
108
184
103
-257
0
292
-104
-101
0
-243
0
226
0
82
0
56
80
0
-79
0
-105
-137
-276
0
-334
-193
0
115
0
215
0
0
-206
0
0
0
59
313
160
-54
80
68
0
0
-75
60
56
66
-138
-53
-65
0
-171
55
0
333
58
111
285
105
61
-206
95
300
109
489
73
-80
-56
-273
-57
0
53
-109
-120
-93
0
-116
0
121
77
0
144
-140
-65
0
0
-66
0
-135
-191
-105
0
0
90
0
146
-160
-96
-143
0
-195
0
0
-151
153
-59
-127
0
-176
-111
138
100
0
0
0
68
0
-88
-156
-84
90
-170
0
0
-74
-103
0
0
-131
-142
205
-89
-119
-128
-53
-199
67
0
-83
366
297
-69
129
-72
98
0
0
0
0
340
-117
0
0
0
-81
0
245
0
309
219
-83
138
0
0
0
87
-147
-85
0
0
-77
-145
-187
-129
-103
0
0
-161
0
-79
0
82
62
157
-161
-66
0
0
85
-89
-102
0
-105
0
0
0
0
60
0
0
-165
-148
222
-98
146
-185
55
-70
-93
412
-91
0
-110
241
0
83
-117
239
-55
86
-106
257
219
-107
-112
-181
-325
0
-138
0
0
0
-70
-59
0
-122
-74
0
0
52
0
-167
0
-50
-87
-100
0
0
-89
117
-106
128
0
50
0
0
105
-79
-183
-120
-190
140
0
95
-159
0
0
0
117
-218
54
0
0
128
0
-86
0
0
-118
-217
-84
0
-73
334
350
-117
-135
708
0
-66
156
166
-111
-141
-142
-172
-260
70
0
0
0
139
0
0
0
-54
-100
264
252
-146
92
-56
0
226
0
0
-224
-127
-97
192
0
-95
0
0
0
0
0
0
-77
0
102
122
187
0
0
0
0
96
74
-61
0
-76
0
101
0
-104
120
0
423
0
128
0
574
0
-232
-171
77
-131
284
-165
-215
93
0
0
-149
0
53
199
91
260
71
-85
-92
494
0
-133
-101
0
0
-223
-85
146
0
-168
136
117
-80
204
256
0
-175
123
-108
-164
117
0
-64
-105
0
-58
347
219
92
0
-88
60
0
395
78
0
0
0
0
58
150
0
-121
150
0
267
187
50
-158
94
0
83
0
0
-230
317
0
50
-125
-50
-132
182
0
-189
-104
0
0
0
0
58
-111
0
-120
0
89
0
119
0
-74
527
-50
0
-168
153
-168
0
0
421
69
330
203
-139
0
-139
-195
180
-111
-134
-52
-86
-144
-89
-119
88
-60
87
96
-123
0
53
-116
-123
-141
-66
172
0
116
-78
0
-73
0
-91
-99
0
-171
-53
-102
0
0
0
-136
-70
105
-182
-97
-100
97
0
-130
0
197
-266
0
-88
-78
0
0
-65
61
-103
0
-244
-99
0
-73
91
-180
275
-116
-115
195
218
164
-140
108
58
-105
257
0
0
176
-132
-70
0
-103
0
0
0
0
0
0
-75
257
122
-129
441
164
-206
0
-184
349
132
0
-73
102
0
-88
-165
-90
78
-197
-96
0
-99
152
0
218
0
-70
0
0
0
209
0
0
0
-217
111
-72
-90
-73
-103
0
-84
0
0
0
0
0
92
0
170
-317
0
-66
-127
95
106
-76
-126
0
411
-203
-202
-133
0
-231
-80
0
0
-96
0
-224
-54
-188
324
58
-123
57
-138
-175
0
-53
-66
0
-226
0
-73
129
-51
-152
-50
191
0
-137
0
515
0
123
77
-97
-247
-54
-112
53
-171
-223
0
156
-239
-238
0
158
0
0
0
90
69
-105
-74
69
-82
0
0
90
-105
-124
0
-85
101
-85
-117
-100
0
89
-143
95
0
0
170
-90
-204
0
-150
51
111
-207
0
108
0
0
-251
0
50
151
222
-114
0
343
-77
-114
77
0
-110
0
-153
214
0
-62
-51
164
185
-281
68
94
207
137
-81
229
0
240
0
-72
118
146
-279
138
151
708
1269
863
-198
117
237
-82
0
-64
-183
-123
-161
140
145
72
0
0
0
0
428
68
73
120
107
293
0
242
124
-81
-57
-97
85
131
53
0
-78
-93
-231
0
-96
0
0
0
-69
0
0
0
-103
0
-155
-149
143
-110
-139
0
-180
270
78
85
-55
-172
0
0
-127
0
84
61
-135
240
0
0
-91
-207
0
0
-77
-54
0
152
0
0
-167
0
-220
-123
-77
-147
0
0
0
318
74
83
-163
-102
91
-54
74
-67
84
0
146
0
112
114
0
0
-62
239
147
422
0
0
55
0
-107
137
273
156
-99
0
-96
76
0
0
-158
-103
0
-310
0
155
68
0
0
-155
0
175
0
240
133
-91
-129
67
0
61
0
51
0
0
58
105
0
-63
0
0
0
98
-102
0
0
-109
-111
0
-172
-162
99
0
-174
0
0
-162
58
0
0
94
-163
-72
-96
145
0
114
202
185
148
292
-119
0
-110
0
86
-162
0
-162
0
0
91
0
0
0
0
0
58
66
0
-202
0
57
-69
0
0
0
-241
-185
0
-51
153
0
-173
0
0
268
86
-124
-175
-96
0
-80
-86
0
-133
95
-55
-223
0
95
0
0
0
0
-114
92
-71
-80
0
0
-267
72
105
-98
-55
67
99
-51
0
-77
87
-55
72
-202
-53
-189
0
-66
-54
0
0
-148
0
-66
0
-97
0
0
-76
0
-128
-82
-52
137
-68
-70
96
0
-102
182
68
-51
0
0
0
85
-64
59
190
-90
-190
0
-72
-51
0
72
-172
99
-111
-68
100
-107
0
-161
0
164
-81
-66
-142
0
-133
95
0
0
123
-54
0
-211
100
127
0
0
188
0
0
79
0
-56
-163
0
102
0
-99
-171
-80
0
239
59
0
0
182
60
171
0
227
53
130
70
-57
0
-78
-61
-168
-105
-116
-70
-111
0
167
-185
0
144
0
198
55
0
140
0
110
50
64
0
199
-91
0
0
-155
-145
157
-173
0
-98
-72
0
-72
-161
131
-86
-82
0
71
104
-124
0
-104
0
0
-58
-168
-120
0
0
121
136
-63
100
0
0
0
-102
0
224
0
68
-126
0
94
-89
-116
0
0
-58
121
0
0
0
-282
-214
0
-159
0
83
0
-137
63
0
82
0
-98
0
-67
-132
-87
0
-129
-237
0
0
-136
0
93
0
150
0
361
194
-145
-69
-89
-144
-126
0
-172
-158
87
-197
0
62
-290
0
317
0
0
62
-178
110
115
295
0
162
-144
-311
-58
-87
166
132
-253
0
262
0
0
-117
58
197
0
126
189
166
255
0
503
-90
0
274
0
-153
-59
110
50
-117
206
-233
-102
0
0
58
-175
-115
-190
0
-184
0
0
0
0
262
-122
-265
235
-143
-228
246
0
196
-189
0
0
-221
-154
-59
586
66
108
335
0
52
-121
0
-65
-136
68
79
-238
-68
95
0
0
-150
0
-173
457
73
0
-121
162
-96
0
0
86
0
72
-175
0
93
-79
-157
0
126
-132
0
0
169
0
475
0
-61
0
129
0
0
-86
0
-80
148
0
0
167
226
0
385
367
-267
-70
0
-198
56
205
-65
87
0
-71
-52
100
-157
0
0
-115
-191
-66
-62
-187
243
237
-77
-104
-122
0
91
0
-171
87
124
140
0
-130
90
-119
-149
-174
61
211
-190
212
-205
-183
-89
240
237
-242
0
0
109
-192
-117
-140
-169
-228
0
-131
54
-202
0
-89
-101
-54
295
-126
-160
-180
-196
-109
172
504
263
209
0
-80
80
347
-52
-94
-80
143
0
243
-180
268
0
-337
-69
-231
178
0
211
100
-105
0
0
198
122
96
-179
0
0
0
68
-104
67
323
221
-238
-55
-169
0
0
-79
-93
0
-161
0
-261
-215
484
0
-136
-82
0
0
-65
-50
0
-113
-169
141
384
0
134
0
-50
97
72
109
-135
0
-157
0
184
0
0
0
0
393
0
-130
0
306
65
0
58
0
0
98
0
0
-80
69
0
206
-208
332
-129
0
-127
-65
0
0
62
130
92
-67
194
-114
-53
236
182
-117
89
70
-213
0
-62
-166
366
0
-193
-89
57
-61
-280
-145
224
181
0
234
-164
-76
134
64
96
50
86
-91
-55
0
87
-176
-189
155
-67
-271
-219
-80
-55
262
-150
-253
0
0
131
64
-97
56
-103
-190
-86
139
0
-256
-79
295
833
187
-215
399
97
0
-183
-114
223
82
304
263
-131
0
-211
214
-102
0
-114
0
198
0
-104
352
0
0
-137
-220
246
-50
0
280
-113
64
224
0
-81
-177
238
252
0
84
94
0
-112
0
-108
-105
-68
-134
0
91
221
-103
-50
-85
0
-241
-106
-159
135
-133
160
0
93
84
-397
72
-169
-138
-156
-72
-170
68
0
0
-64
93
-106
-61
79
-61
-65
0
-296
-302
0
77
0
-76
63
-65
-81
-86
167
-244
-92
91
0
0
145
0
-73
0
162
-273
347
0
-72
-79
-104
-121
-64
236
164
0
317
121
190
0
-164
-298
-67
76
179
112
-306
52
-62
-152
0
0
-163
0
-168
-124
-218
439
154
181
119
333
411
82
359
-51
66
76
474
354
0
0
121
-81
-111
57
-234
0
0
182
-70
-123
-53
0
103
0
-107
-179
0
0
81
-117
-79
-66
360
79
-115
80
-157
107
145
186
346
236
440
-72
128
-110
-68
-66
0
-73
74
-132
0
0
0
90
87
0
-111
78
98
-183
0
-123
0
0
89
-92
-225
-121
150
-147
106
0
0
117
76
0
-52
-78
0
-76
0
0
81
115
-160
0
0
0
-69
0
0
-92
-117
0
-107
-211
-90
0
163
-58
0
156
-126
-84
142
-74
53
107
-165
0
0
-109
0
-51
0
83
116
-102
-234
-144
-65
175
-200
0
141
0
78
-210
0
0
0
0
-222
0
0
-159
0
-78
0
184
0
89
87
-141
279
-146
199
0
-227
60
0
-110
0
-171
0
268
-62
0
0
0
0
0
-132
0
0
0
-72
0
0
0
-189
80
-109
-195
-164
-62
-188
0
-130
0
0
0
382
0
-85
-192
-107
-65
0
61
167
205
0
-304
-135
0
0
161
56
0
-87
-61
0
0
-126
-224
-81
-63
-50
-131
-74
0
-59
-138
-72
0
0
-76
-73
0
-176
0
-155
-58
-53
0
-194
-181
-110
-81
0
116
54
0
195
0
57
-50
0
-169
-209
-131
-157
203
-171
0
0
-85
0
0
410
482
-145
-245
53
0
89
-80
-140
59
-129
0
163
58
0
-103
240
-111
0
-97
-115
72
0
83
0
96
-166
0
119
0
0
-60
111
-112
-107
-52
0
189
0
-108
160
0
182
0
-148
-104
0
0
0
134
0
0
-201
102
0
213
0
-72
0
50
0
113
-206
234
509
0
263
0
104
0
0
98
-69
108
103
514
0
-180
-230
-82
0
66
0
132
-145
-143
-201
0
0
0
213
57
0
0
53
0
-105
-200
-73
-188
140
0
95
0
82
-72
-61
-110
177
155
57
0
93
-106
-192
0
-78
-94
0
-153
0
66
-145
61
0
-110
97
-131
-163
67
0
0
142
0
-110
0
54
249
0
-79
0
-93
0
-111
-91
-122
0
-57
-70
0
-124
-110
0
0
-180
69
61
-166
85
0
-211
-50
0
0
-68
-88
0
-104
-133
-91
-55
-159
0
0
-141
0
-132
91
0
-77
-226
0
-147
80
-51
-135
-138
-138
-52
-100
-71
-123
-187
0
-146
0
-94
-83
-166
-132
-195
72
0
0
0
0
0
0
0
0
252
57
159
0
90
-230
0
130
407
-90
0
-122
0
159
0
-82
58
-181
0
-53
129
-145
144
311
126
0
50
0
0
-53
-111
0
-153
0
65
-106
0
0
-59
0
0
-107
-154
64
-114
-92
-215
75
0
221
0
109
-207
52
-78
0
-80
0
0
0
-163
89
113
-159
0
-82
160
123
0
127
0
-74
242
0
-191
54
0
-79
0
-87
73
72
0
0
-201
0
0
0
68
-166
-145
129
185
-94
0
-148
-120
-150
245
0
0
244
-119
0
259
0
-140
0
139
0
0
-76
190
57
0
-78
0
0
129
195
-186
-63
-67
-115
0
55
-72
-66
-171
-76
-55
0
168
0
177
405
0
103
-161
0
-176
115
111
-70
0
-55
-89
-109
0
146
0
-120
-58
-87
-127
143
-89
0
0
0
67
-141
-71
0
263
-127
0
271
-53
0
101
-222
97
136
0
0
0
-151
74
-258
161
-56
0
0
-133
0
-112
0
174
0
0
0
-103
128
0
173
134
128
229
-223
-75
409
100
-342
83
0
-86
-138
-168
0
54
-114
0
-155
0
0
0
-202
0
0
202
-170
65
0
-333
-91
64
0
0
0
-63
227
-56
0
-124
0
-131
-187
0
0
-52
-74
83
-241
-211
-135
103
183
263
119
82
-161
0
-165
0
132
0
-102
88
94
0
120
0
0
-56
0
0
193
-188
202
-56
-227
-109
-256
0
138
78
112
0
-158
-78
0
0
0
164
158
190
-149
56
-56
0
-128
442
0
-125
-52
-61
-137
-98
0
-248
114
-76
-68
-134
0
0
0
-126
-170
0
93
-150
0
261
0
-244
0
114
288
-224
-175
0
-183
143
-117
-143
-147
0
-113
0
196
210
0
0
0
157
113
0
-92
206
0
0
315
-122
-68
0
0
75
0
-82
69
-77
181
0
90
210
-247
0
114
-108
-138
61
0
368
-190
-85
0
-114
-281
-64
-159
-211
148
-90
-134
0
0
259
-146
76
0
0
266
363
-107
-60
69
0
-151
-110
52
-89
295
131
-138
-88
-182
714
-137
-103
0
189
-209
0
-125
-79
-132
127
117
87
98
117
-80
0
70
0
240
0
0
62
341
140
-69
144
-75
151
105
0
68
-122
0
0
-76
-161
0
104
86
880
266
0
82
245
79
-143
-189
372
-236
-104
-52
-56
64
0
0
196
132
0
-216
205
-156
0
-194
0
147
0
169
92
65
0
460
-211
78
0
-120
-113
-84
-176
0
54
256
109
120
0
276
229
-59
-225
-209
-167
0
-117
155
196
-216
0
218
0
-127
159
0
-329
0
414
126
0
445
0
51
385
165
0
-91
0
-302
0
-93
-144
0
0
-56
218
-100
114
-88
-106
-51
0
-53
0
129
0
73
-125
116
59
446
-127
0
-259
-268
-157
-212
0
-86
167
125
-57
571
83
144
264
240
-159
59
367
0
164
0
206
-83
-75
-198
508
64
304
106
428
565
-152
97
277
-58
179
0
322
252
0
0
-178
132
-113
-61
129
-112
-107
-111
110
0
86
0
-80
0
0
58
-79
0
51
-141
226
54
-72
0
-64
51
196
0
115
0
-88
238
185
-83
0
0
-99
-83
-172
206
0
-71
-83
0
0
0
58
72
0
0
0
0
-100
-60
140
-125
-110
-65
57
0
0
63
-75
125
-85
0
-358
155
117
0
235
0
-93
0
0
153
-133
0
-59
-128
306
-134
125
0
0
-207
-66
-121
-51
-142
57
0
0
-191
-108
-52
-219
-134
0
0
0
134
-112
0
0
104
-223
106
-104
-89
-163
0
-66
-119
0
0
-129
94
54
0
0
0
95
0
0
296
-129
0
262
85
0
-116
-119
-131
84
0
0
0
-59
71
199
0
0
0
0
105
0
-195
-90
0
-79
-101
-111
0
-150
-159
-133
-168
77
-111
-280
-57
282
0
188
158
109
171
102
54
57
-149
134
166
-59
0
0
-123
137
-55
69
0
0
81
-65
-114
0
0
-112
0
0
0
333
0
-80
-159
-218
-107
68
-83
102
0
120
-52
171
-57
0
-108
-128
-93
0
203
0
-59
-96
0
-120
-90
129
-103
-61
-107
-210
-57
-87
-62
-96
-58
-81
81
152
0
0
0
0
0
104
-105
52
0
-53
-135
0
294
291
108
0
0
-84
81
-74
0
-152
-139
0
91
0
56
166
0
0
76
-75
0
-131
0
0
-108
-114
277
70
212
0
-128
-137
104
248
54
0
69
-65
-152
-117
0
88
-53
71
0
-103
-142
0
0
-79
-110
0
0
88
189
-52
-186
87
228
-76
-126
189
0
-116
0
283
0
0
-184
0
-165
0
0
-83
-55
156
-232
56
-78
-152
0
-94
-139
0
-97
-83
0
-102
-109
105
0
-101
-103
0
141
-261
88
-52
243
0
-85
-191
-83
70
0
0
222
-145
285
88
0
-82
-70
252
0
-128
126
-82
154
74
-110
0
-69
0
-80
-64
-56
-115
0
63
0
-101
-53
0
0
246
62
-130
50
0
72
78
159
81
190
-65
-71
-216
-93
-127
-75
-90
-170
0
-144
0
138
-128
-143
-73
-51
0
-162
0
-179
0
0
-78
114
97
0
-104
178
-126
-51
-86
-166
-87
0
0
0
0
0
-135
-245
-131
0
0
0
-171
-128
-101
0
-89
-208
-78
-95
-122
-62
54
0
160
-286
-191
202
0
95
-133
-107
90
127
0
218
0
-182
61
